<?xml version="1.0"?>
<opencv_storage>
<stage6>
  <maxWeakCount>100</maxWeakCount>
  <stageThreshold>-1.6196609735488892e+00</stageThreshold>
  <weakClassifiers>
    <_>
      <internalNodes>
        0 -1 114387 -1.6674005892127752e-03</internalNodes>
      <leafValues>
        5.4760819673538208e-01 -1.1191135644912720e-01</leafValues></_>
    <_>
      <internalNodes>
        0 -1 136782 -4.3784934282302856e-01</internalNodes>
      <leafValues>
        -6.4950275421142578e-01 1.5087400376796722e-01</leafValues></_>
    <_>
      <internalNodes>
        0 -1 50322 1.5689812600612640e-02</internalNodes>
      <leafValues>
        -2.5459343194961548e-01 4.0913075208663940e-01</leafValues></_>
    <_>
      <internalNodes>
        0 -1 8060 1.4667392708361149e-02</internalNodes>
      <leafValues>
        -2.6583918929100037e-01 3.0060318112373352e-01</leafValues></_>
    <_>
      <internalNodes>
        0 -1 121744 -2.7669718489050865e-02</internalNodes>
      <leafValues>
        3.1137961149215698e-01 -1.9549864530563354e-01</leafValues></_>
    <_>
      <internalNodes>
        0 -1 1163 3.8326662033796310e-03</internalNodes>
      <leafValues>
        -1.7075067758560181e-01 2.3636719584465027e-01</leafValues></_>
    <_>
      <internalNodes>
        0 -1 89097 -9.3661159276962280e-02</internalNodes>
      <leafValues>
        -3.6433851718902588e-01 7.6527416706085205e-02</leafValues></_>
    <_>
      <internalNodes>
        0 -1 105475 -2.5155048351734877e-03</internalNodes>
      <leafValues>
        1.7426778376102448e-01 -1.6808824241161346e-01</leafValues></_>
    <_>
      <internalNodes>
        0 -1 110010 1.3458499312400818e-01</internalNodes>
      <leafValues>
        -8.1831313669681549e-02 3.3116126060485840e-01</leafValues></_>
    <_>
      <internalNodes>
        0 -1 58542 -2.8954732697457075e-03</internalNodes>
      <leafValues>
        5.2050877362489700e-02 -5.3673684597015381e-01</leafValues></_>
    <_>
      <internalNodes>
        0 -1 79831 -2.3224398493766785e-02</internalNodes>
      <leafValues>
        2.5409528613090515e-01 -1.0240019857883453e-01</leafValues></_>
    <_>
      <internalNodes>
        0 -1 12621 -8.6915800347924232e-03</internalNodes>
      <leafValues>
        2.5020709633827209e-01 -1.1902929097414017e-01</leafValues></_>
    <_>
      <internalNodes>
        0 -1 4338 -1.0718197375535965e-01</internalNodes>
      <leafValues>
        4.1667386889457703e-01 -4.5500852167606354e-02</leafValues></_>
    <_>
      <internalNodes>
        0 -1 37816 7.6262634247541428e-03</internalNodes>
      <leafValues>
        -8.7166264653205872e-02 2.6521933078765869e-01</leafValues></_>
    <_>
      <internalNodes>
        0 -1 114040 2.2394619882106781e-02</internalNodes>
      <leafValues>
        -7.7647894620895386e-02 3.1775087118148804e-01</leafValues></_>
    <_>
      <internalNodes>
        0 -1 60514 2.1977450698614120e-02</internalNodes>
      <leafValues>
        2.7463151142001152e-02 -7.8017157316207886e-01</leafValues></_>
    <_>
      <internalNodes>
        0 -1 728 1.3481202721595764e-01</internalNodes>
      <leafValues>
        -7.7263832092285156e-02 2.7227291464805603e-01</leafValues></_>
    <_>
      <internalNodes>
        0 -1 151960 -2.1600648760795593e-02</internalNodes>
      <leafValues>
        -7.7639770507812500e-01 2.5431947782635689e-02</leafValues></_>
    <_>
      <internalNodes>
        0 -1 114467 1.3413321226835251e-02</internalNodes>
      <leafValues>
        2.4839159101247787e-02 -6.4081430435180664e-01</leafValues></_>
    <_>
      <internalNodes>
        0 -1 31664 4.3421782553195953e-02</internalNodes>
      <leafValues>
        -6.1515897512435913e-02 3.1884962320327759e-01</leafValues></_>
    <_>
      <internalNodes>
        0 -1 55335 1.4378500636667013e-03</internalNodes>
      <leafValues>
        -9.9370829761028290e-02 1.8614409863948822e-01</leafValues></_>
    <_>
      <internalNodes>
        0 -1 146844 -8.6548114195466042e-03</internalNodes>
      <leafValues>
        -2.2975413501262665e-01 8.9171990752220154e-02</leafValues></_>
    <_>
      <internalNodes>
        0 -1 57167 3.9381012320518494e-03</internalNodes>
      <leafValues>
        -1.1328860372304916e-01 1.7289404571056366e-01</leafValues></_>
    <_>
      <internalNodes>
        0 -1 102108 1.0505513846874237e-01</internalNodes>
      <leafValues>
        6.1701860278844833e-02 -3.6767843365669250e-01</leafValues></_>
    <_>
      <internalNodes>
        0 -1 139312 -1.3095730915665627e-02</internalNodes>
      <leafValues>
        -5.1102274656295776e-01 3.4184932708740234e-02</leafValues></_>
    <_>
      <internalNodes>
        0 -1 24097 -3.2715378329157829e-03</internalNodes>
      <leafValues>
        -4.3318313360214233e-01 3.7210755050182343e-02</leafValues></_>
    <_>
      <internalNodes>
        0 -1 86316 1.5536891296505928e-02</internalNodes>
      <leafValues>
        2.0168470218777657e-02 -7.9531234502792358e-01</leafValues></_>
    <_>
      <internalNodes>
        0 -1 138969 -2.2493366152048111e-02</internalNodes>
      <leafValues>
        2.2179411351680756e-01 -8.3538919687271118e-02</leafValues></_>
    <_>
      <internalNodes>
        0 -1 114422 2.7883460279554129e-03</internalNodes>
      <leafValues>
        3.1207799911499023e-02 -5.6196850538253784e-01</leafValues></_>
    <_>
      <internalNodes>
        0 -1 151394 -4.5640114694833755e-03</internalNodes>
      <leafValues>
        -4.9642500281333923e-01 3.0147070065140724e-02</leafValues></_>
    <_>
      <internalNodes>
        0 -1 118416 -4.9134595319628716e-03</internalNodes>
      <leafValues>
        2.1863695979118347e-01 -7.5962014496326447e-02</leafValues></_>
    <_>
      <internalNodes>
        0 -1 107332 -2.2491175681352615e-02</internalNodes>
      <leafValues>
        2.2440573573112488e-01 -7.1784123778343201e-02</leafValues></_>
    <_>
      <internalNodes>
        0 -1 104903 9.2125230003148317e-04</internalNodes>
      <leafValues>
        -8.6775042116641998e-02 1.8031036853790283e-01</leafValues></_>
    <_>
      <internalNodes>
        0 -1 90308 -1.1874070391058922e-02</internalNodes>
      <leafValues>
        1.4344972372055054e-01 -1.1566220968961716e-01</leafValues></_>
    <_>
      <internalNodes>
        0 -1 37950 4.3356675654649734e-02</internalNodes>
      <leafValues>
        -6.7141540348529816e-02 2.9875290393829346e-01</leafValues></_>
    <_>
      <internalNodes>
        0 -1 13386 -1.9375827163457870e-02</internalNodes>
      <leafValues>
        3.1090286374092102e-01 -4.9753963947296143e-02</leafValues></_>
    <_>
      <internalNodes>
        0 -1 134228 -6.9001717492938042e-03</internalNodes>
      <leafValues>
        -7.1873277425765991e-01 2.4781495332717896e-02</leafValues></_>
    <_>
      <internalNodes>
        0 -1 133811 -1.5601739287376404e-02</internalNodes>
      <leafValues>
        -7.5395023822784424e-01 1.6501050442457199e-02</leafValues></_>
    <_>
      <internalNodes>
        0 -1 31980 2.7421768754720688e-03</internalNodes>
      <leafValues>
        -9.7479231655597687e-02 1.6636675596237183e-01</leafValues></_>
    <_>
      <internalNodes>
        0 -1 43067 -2.2726813331246376e-03</internalNodes>
      <leafValues>
        1.9675415754318237e-01 -9.9989093840122223e-02</leafValues></_>
    <_>
      <internalNodes>
        0 -1 31153 1.6649600118398666e-02</internalNodes>
      <leafValues>
        2.6525974273681641e-02 -6.6870647668838501e-01</leafValues></_>
    <_>
      <internalNodes>
        0 -1 151770 -1.0149150621145964e-03</internalNodes>
      <leafValues>
        1.2348324060440063e-01 -1.2625117599964142e-01</leafValues></_>
    <_>
      <internalNodes>
        0 -1 79706 -6.1532124876976013e-02</internalNodes>
      <leafValues>
        -4.6076202392578125e-01 3.5301025956869125e-02</leafValues></_>
    <_>
      <internalNodes>
        0 -1 4303 8.8814608752727509e-03</internalNodes>
      <leafValues>
        -1.0573928058147430e-01 1.5098214149475098e-01</leafValues></_>
    <_>
      <internalNodes>
        0 -1 53566 3.7572826258838177e-03</internalNodes>
      <leafValues>
        2.9638370499014854e-02 -5.5569094419479370e-01</leafValues></_>
    <_>
      <internalNodes>
        0 -1 158164 -2.4260155856609344e-02</internalNodes>
      <leafValues>
        -7.6906156539916992e-01 1.7143312841653824e-02</leafValues></_>
    <_>
      <internalNodes>
        0 -1 80937 -2.2410508245229721e-02</internalNodes>
      <leafValues>
        -4.4901311397552490e-02 3.4661713242530823e-01</leafValues></_>
    <_>
      <internalNodes>
        0 -1 127932 -1.0732003720477223e-03</internalNodes>
      <leafValues>
        -4.5333960652351379e-01 3.4175142645835876e-02</leafValues></_>
    <_>
      <internalNodes>
        0 -1 96705 -5.4690483957529068e-02</internalNodes>
      <leafValues>
        1.7384342849254608e-01 -9.0134263038635254e-02</leafValues></_>
    <_>
      <internalNodes>
        0 -1 154917 9.8556615412235260e-03</internalNodes>
      <leafValues>
        -6.8590573966503143e-02 2.6148739457130432e-01</leafValues></_>
    <_>
      <internalNodes>
        0 -1 68379 -8.8116675615310669e-02</internalNodes>
      <leafValues>
        -4.3483710289001465e-01 4.0096081793308258e-02</leafValues></_>
    <_>
      <internalNodes>
        0 -1 84963 -5.6604342535138130e-03</internalNodes>
      <leafValues>
        1.6672541201114655e-01 -9.2585168778896332e-02</leafValues></_>
    <_>
      <internalNodes>
        0 -1 127992 1.3039675541222095e-03</internalNodes>
      <leafValues>
        2.9426923021674156e-02 -5.3743702173233032e-01</leafValues></_>
    <_>
      <internalNodes>
        0 -1 70499 -2.6226248592138290e-03</internalNodes>
      <leafValues>
        1.1531446129083633e-01 -1.1639709025621414e-01</leafValues></_>
    <_>
      <internalNodes>
        0 -1 8259 -2.1074183285236359e-02</internalNodes>
      <leafValues>
        2.8838935494422913e-01 -5.3884316235780716e-02</leafValues></_>
    <_>
      <internalNodes>
        0 -1 131504 9.0185943990945816e-03</internalNodes>
      <leafValues>
        -9.4374828040599823e-02 1.5034501254558563e-01</leafValues></_>
    <_>
      <internalNodes>
        0 -1 152136 -7.4543833732604980e-02</internalNodes>
      <leafValues>
        2.7515977621078491e-01 -5.6157469749450684e-02</leafValues></_>
    <_>
      <internalNodes>
        0 -1 25528 1.4889997430145741e-02</internalNodes>
      <leafValues>
        -4.5601561665534973e-02 3.1514003872871399e-01</leafValues></_>
    <_>
      <internalNodes>
        0 -1 105655 -3.9111748337745667e-03</internalNodes>
      <leafValues>
        -4.9491313099861145e-01 3.2247897237539291e-02</leafValues></_>
    <_>
      <internalNodes>
        0 -1 11542 7.8636407852172852e-04</internalNodes>
      <leafValues>
        -1.0357195883989334e-01 1.4770649373531342e-01</leafValues></_>
    <_>
      <internalNodes>
        0 -1 108872 9.3890931457281113e-03</internalNodes>
      <leafValues>
        -8.6105525493621826e-02 1.7117232084274292e-01</leafValues></_>
    <_>
      <internalNodes>
        0 -1 73094 -8.5620293393731117e-03</internalNodes>
      <leafValues>
        -6.2151145935058594e-01 2.5560243055224419e-02</leafValues></_>
    <_>
      <internalNodes>
        0 -1 144764 -1.2072729878127575e-02</internalNodes>
      <leafValues>
        -5.3462666273117065e-01 2.3548768833279610e-02</leafValues></_>
    <_>
      <internalNodes>
        0 -1 144724 -4.8000933602452278e-03</internalNodes>
      <leafValues>
        -7.4133586883544922e-01 1.7405601218342781e-02</leafValues></_>
    <_>
      <internalNodes>
        0 -1 152581 1.3811883516609669e-02</internalNodes>
      <leafValues>
        -7.2191089391708374e-02 1.9121529161930084e-01</leafValues></_>
    <_>
      <internalNodes>
        0 -1 143887 -7.0454431697726250e-03</internalNodes>
      <leafValues>
        -4.5927372574806213e-01 2.8641706332564354e-02</leafValues></_>
    <_>
      <internalNodes>
        0 -1 158747 -9.9032986909151077e-03</internalNodes>
      <leafValues>
        1.7284086346626282e-01 -7.9142048954963684e-02</leafValues></_>
    <_>
      <internalNodes>
        0 -1 120747 -7.5007411651313305e-03</internalNodes>
      <leafValues>
        -1.6589039564132690e-01 8.5910819470882416e-02</leafValues></_>
    <_>
      <internalNodes>
        0 -1 153392 1.5603899955749512e-02</internalNodes>
      <leafValues>
        2.0810037851333618e-02 -6.5841692686080933e-01</leafValues></_>
    <_>
      <internalNodes>
        0 -1 108591 2.5119376368820667e-03</internalNodes>
      <leafValues>
        2.9790038242936134e-02 -3.8860529661178589e-01</leafValues></_>
    <_>
      <internalNodes>
        0 -1 5300 -3.0668992549180984e-02</internalNodes>
      <leafValues>
        -5.4090774059295654e-01 2.2985003888607025e-02</leafValues></_>
    <_>
      <internalNodes>
        0 -1 1423 1.9001089036464691e-02</internalNodes>
      <leafValues>
        -5.7612396776676178e-02 2.3702467978000641e-01</leafValues></_>
    <_>
      <internalNodes>
        0 -1 14510 -5.3723994642496109e-03</internalNodes>
      <leafValues>
        2.2585266828536987e-01 -6.6147692501544952e-02</leafValues></_>
    <_>
      <internalNodes>
        0 -1 860 7.9609787464141846e-01</internalNodes>
      <leafValues>
        -1.5968196094036102e-02 7.6948291063308716e-01</leafValues></_>
    <_>
      <internalNodes>
        0 -1 41313 1.3195639476180077e-03</internalNodes>
      <leafValues>
        -8.0807231366634369e-02 1.4880773425102234e-01</leafValues></_>
    <_>
      <internalNodes>
        0 -1 2868 -9.9442256614565849e-03</internalNodes>
      <leafValues>
        -3.1012877821922302e-01 3.9099585264921188e-02</leafValues></_>
    <_>
      <internalNodes>
        0 -1 38040 -2.4472411721944809e-02</internalNodes>
      <leafValues>
        -9.7093605995178223e-01 1.2199425138533115e-02</leafValues></_>
    <_>
      <internalNodes>
        0 -1 119015 -9.3288552016019821e-03</internalNodes>
      <leafValues>
        -4.6779763698577881e-01 2.0920161157846451e-02</leafValues></_>
    <_>
      <internalNodes>
        0 -1 11794 -1.6300398111343384e-01</internalNodes>
      <leafValues>
        2.3941989243030548e-01 -5.1592536270618439e-02</leafValues></_>
    <_>
      <internalNodes>
        0 -1 138529 3.5978495143353939e-03</internalNodes>
      <leafValues>
        -7.9736843705177307e-02 1.6182157397270203e-01</leafValues></_>
    <_>
      <internalNodes>
        0 -1 89560 -8.7912107119336724e-04</internalNodes>
      <leafValues>
        -3.3839872479438782e-01 3.5694435238838196e-02</leafValues></_>
    <_>
      <internalNodes>
        0 -1 133124 -1.4918759698048234e-03</internalNodes>
      <leafValues>
        1.5724408626556396e-01 -7.8583970665931702e-02</leafValues></_>
    <_>
      <internalNodes>
        0 -1 82304 2.8057642281055450e-02</internalNodes>
      <leafValues>
        1.5861852094531059e-02 -7.6197636127471924e-01</leafValues></_>
    <_>
      <internalNodes>
        0 -1 85887 3.2250978983938694e-03</internalNodes>
      <leafValues>
        -7.9578176140785217e-02 1.7986439168453217e-01</leafValues></_>
    <_>
      <internalNodes>
        0 -1 139247 -1.1259036837145686e-03</internalNodes>
      <leafValues>
        1.5449376404285431e-01 -8.1759877502918243e-02</leafValues></_>
    <_>
      <internalNodes>
        0 -1 162316 1.3866377063095570e-02</internalNodes>
      <leafValues>
        -2.0572599023580551e-02 5.4864966869354248e-01</leafValues></_>
    <_>
      <internalNodes>
        0 -1 159667 2.5636896025389433e-03</internalNodes>
      <leafValues>
        4.8908445984125137e-02 -2.8339982032775879e-01</leafValues></_>
    <_>
      <internalNodes>
        0 -1 16790 -1.6826998442411423e-02</internalNodes>
      <leafValues>
        1.7170038819313049e-01 -6.9846175611019135e-02</leafValues></_>
    <_>
      <internalNodes>
        0 -1 26536 -7.3455199599266052e-02</internalNodes>
      <leafValues>
        4.1989064216613770e-01 -2.8801864013075829e-02</leafValues></_>
    <_>
      <internalNodes>
        0 -1 151899 -5.1473388448357582e-03</internalNodes>
      <leafValues>
        -5.2806532382965088e-01 2.6401046663522720e-02</leafValues></_>
    <_>
      <internalNodes>
        0 -1 161081 -9.6188596216961741e-05</internalNodes>
      <leafValues>
        1.1108843237161636e-01 -1.0907559096813202e-01</leafValues></_>
    <_>
      <internalNodes>
        0 -1 151097 3.9091520011425018e-02</internalNodes>
      <leafValues>
        -4.0547296404838562e-02 3.4602046012878418e-01</leafValues></_>
    <_>
      <internalNodes>
        0 -1 10036 -7.8064361587166786e-03</internalNodes>
      <leafValues>
        4.1077840328216553e-01 -2.6074165478348732e-02</leafValues></_>
    <_>
      <internalNodes>
        0 -1 77612 -3.7485599517822266e-01</internalNodes>
      <leafValues>
        -3.2438734173774719e-01 4.0170136839151382e-02</leafValues></_>
    <_>
      <internalNodes>
        0 -1 5098 3.3875554800033569e-02</internalNodes>
      <leafValues>
        -4.6744558960199356e-02 3.1702426075935364e-01</leafValues></_>
    <_>
      <internalNodes>
        0 -1 57706 1.7203172668814659e-02</internalNodes>
      <leafValues>
        1.4560686424374580e-02 -8.6774051189422607e-01</leafValues></_>
    <_>
      <internalNodes>
        0 -1 148076 7.6799280941486359e-03</internalNodes>
      <leafValues>
        -6.2235899269580841e-02 2.1338324248790741e-01</leafValues></_>
    <_>
      <internalNodes>
        0 -1 135490 1.4012783765792847e-02</internalNodes>
      <leafValues>
        2.0860571414232254e-02 -5.8052861690521240e-01</leafValues></_>
    <_>
      <internalNodes>
        0 -1 123998 7.2214794345200062e-03</internalNodes>
      <leafValues>
        -8.2760624587535858e-02 1.6271278262138367e-01</leafValues></_>
    <_>
      <internalNodes>
        0 -1 14276 2.0245304331183434e-03</internalNodes>
      <leafValues>
        -9.3253292143344879e-02 1.2955468893051147e-01</leafValues></_></weakClassifiers></stage6>
</opencv_storage>
