<?xml version="1.0"?>
<opencv_storage>
<stage3>
  <maxWeakCount>55</maxWeakCount>
  <stageThreshold>-1.4092352390289307e+00</stageThreshold>
  <weakClassifiers>
    <_>
      <internalNodes>
        0 -1 152358 -3.3050715923309326e-02</internalNodes>
      <leafValues>
        6.9295138120651245e-01 -3.1269159168004990e-02</leafValues></_>
    <_>
      <internalNodes>
        0 -1 234 4.0254198014736176e-02</internalNodes>
      <leafValues>
        -1.6392517089843750e-01 5.5067890882492065e-01</leafValues></_>
    <_>
      <internalNodes>
        0 -1 13394 -3.0555711127817631e-03</internalNodes>
      <leafValues>
        -1.4430052042007446e-01 5.6249177455902100e-01</leafValues></_>
    <_>
      <internalNodes>
        0 -1 51920 -4.6640105545520782e-02</internalNodes>
      <leafValues>
        3.3921024203300476e-01 -1.9199959933757782e-01</leafValues></_>
    <_>
      <internalNodes>
        0 -1 7565 -3.9211399853229523e-02</internalNodes>
      <leafValues>
        4.9950447678565979e-01 -1.3479745388031006e-01</leafValues></_>
    <_>
      <internalNodes>
        0 -1 162115 -2.3017138242721558e-02</internalNodes>
      <leafValues>
        -9.9892109632492065e-02 4.9004709720611572e-01</leafValues></_>
    <_>
      <internalNodes>
        0 -1 146343 5.3246408700942993e-02</internalNodes>
      <leafValues>
        -1.2007073312997818e-01 4.6682259440422058e-01</leafValues></_>
    <_>
      <internalNodes>
        0 -1 121324 -1.1597136035561562e-03</internalNodes>
      <leafValues>
        2.3030842840671539e-01 -2.2888198494911194e-01</leafValues></_>
    <_>
      <internalNodes>
        0 -1 126484 -2.4710036814212799e-03</internalNodes>
      <leafValues>
        1.8361733853816986e-01 -2.3707719147205353e-01</leafValues></_>
    <_>
      <internalNodes>
        0 -1 127848 6.1609246768057346e-04</internalNodes>
      <leafValues>
        8.1448711454868317e-02 -5.1158422231674194e-01</leafValues></_>
    <_>
      <internalNodes>
        0 -1 135430 -5.3836154984310269e-04</internalNodes>
      <leafValues>
        -4.2062935233116150e-01 9.2836312949657440e-02</leafValues></_>
    <_>
      <internalNodes>
        0 -1 1161 7.2420015931129456e-03</internalNodes>
      <leafValues>
        -9.7925744950771332e-02 4.1040584444999695e-01</leafValues></_>
    <_>
      <internalNodes>
        0 -1 12988 1.6636326909065247e-02</internalNodes>
      <leafValues>
        5.5452141910791397e-02 -6.4574378728866577e-01</leafValues></_>
    <_>
      <internalNodes>
        0 -1 20251 1.9673749804496765e-02</internalNodes>
      <leafValues>
        -2.0277431607246399e-01 1.8714590370655060e-01</leafValues></_>
    <_>
      <internalNodes>
        0 -1 71430 6.2764406204223633e-02</internalNodes>
      <leafValues>
        -9.9785342812538147e-02 4.0687987208366394e-01</leafValues></_>
    <_>
      <internalNodes>
        0 -1 121900 -5.8112957049161196e-04</internalNodes>
      <leafValues>
        -4.5069715380668640e-01 8.8922500610351563e-02</leafValues></_>
    <_>
      <internalNodes>
        0 -1 28080 -2.3821470141410828e-01</internalNodes>
      <leafValues>
        -1.1911781132221222e-01 3.2959574460983276e-01</leafValues></_>
    <_>
      <internalNodes>
        0 -1 37879 1.0200057178735733e-02</internalNodes>
      <leafValues>
        7.6371259987354279e-02 -5.2427220344543457e-01</leafValues></_>
    <_>
      <internalNodes>
        0 -1 121900 6.2416249420493841e-04</internalNodes>
      <leafValues>
        7.1596920490264893e-02 -4.2856231331825256e-01</leafValues></_>
    <_>
      <internalNodes>
        0 -1 24022 2.1361835300922394e-02</internalNodes>
      <leafValues>
        3.4790966659784317e-02 -8.2654732465744019e-01</leafValues></_>
    <_>
      <internalNodes>
        0 -1 91893 4.4501526281237602e-04</internalNodes>
      <leafValues>
        8.2340240478515625e-02 -3.3213108777999878e-01</leafValues></_>
    <_>
      <internalNodes>
        0 -1 161617 -6.4659379422664642e-03</internalNodes>
      <leafValues>
        4.0271589159965515e-01 -7.5476825237274170e-02</leafValues></_>
    <_>
      <internalNodes>
        0 -1 46085 -8.0909079406410456e-04</internalNodes>
      <leafValues>
        -4.6348974108695984e-01 6.9994904100894928e-02</leafValues></_>
    <_>
      <internalNodes>
        0 -1 159542 -5.2997758612036705e-03</internalNodes>
      <leafValues>
        -6.1299663782119751e-01 4.3122112751007080e-02</leafValues></_>
    <_>
      <internalNodes>
        0 -1 161999 -3.2372434361604974e-05</internalNodes>
      <leafValues>
        1.7425787448883057e-01 -1.7341461777687073e-01</leafValues></_>
    <_>
      <internalNodes>
        0 -1 161741 2.9719751328229904e-02</internalNodes>
      <leafValues>
        -7.1449555456638336e-02 4.5855656266212463e-01</leafValues></_>
    <_>
      <internalNodes>
        0 -1 35169 -2.6403274387121201e-02</internalNodes>
      <leafValues>
        2.2535634040832520e-01 -1.3139991462230682e-01</leafValues></_>
    <_>
      <internalNodes>
        0 -1 13130 -7.8085973858833313e-02</internalNodes>
      <leafValues>
        3.8884004950523376e-01 -8.6337268352508545e-02</leafValues></_>
    <_>
      <internalNodes>
        0 -1 75670 -5.4277844727039337e-02</internalNodes>
      <leafValues>
        4.5262581110000610e-01 -5.9577234089374542e-02</leafValues></_>
    <_>
      <internalNodes>
        0 -1 81494 -7.1195721626281738e-02</internalNodes>
      <leafValues>
        3.1508398056030273e-01 -8.7016373872756958e-02</leafValues></_>
    <_>
      <internalNodes>
        0 -1 161248 1.1167321354150772e-02</internalNodes>
      <leafValues>
        -9.4705581665039063e-02 3.1747195124626160e-01</leafValues></_>
    <_>
      <internalNodes>
        0 -1 126869 -1.4926381409168243e-03</internalNodes>
      <leafValues>
        -3.8817200064659119e-01 6.6982313990592957e-02</leafValues></_>
    <_>
      <internalNodes>
        0 -1 10244 3.2259818166494370e-02</internalNodes>
      <leafValues>
        -1.1889962106943130e-01 2.2476713359355927e-01</leafValues></_>
    <_>
      <internalNodes>
        0 -1 3181 -8.5100429132580757e-03</internalNodes>
      <leafValues>
        5.1817131042480469e-01 -4.6850796788930893e-02</leafValues></_>
    <_>
      <internalNodes>
        0 -1 89564 -8.1799307372421026e-04</internalNodes>
      <leafValues>
        -4.4279026985168457e-01 6.2150634825229645e-02</leafValues></_>
    <_>
      <internalNodes>
        0 -1 46085 3.2866606488823891e-04</internalNodes>
      <leafValues>
        9.0982213616371155e-02 -2.6189300417900085e-01</leafValues></_>
    <_>
      <internalNodes>
        0 -1 11186 3.1002812087535858e-02</internalNodes>
      <leafValues>
        -7.0913970470428467e-02 3.4618157148361206e-01</leafValues></_>
    <_>
      <internalNodes>
        0 -1 9115 -9.3169346451759338e-02</internalNodes>
      <leafValues>
        4.4850966334342957e-01 -5.5421575903892517e-02</leafValues></_>
    <_>
      <internalNodes>
        0 -1 162296 -1.5118371229618788e-03</internalNodes>
      <leafValues>
        -4.8963382840156555e-01 5.2420120686292648e-02</leafValues></_>
    <_>
      <internalNodes>
        0 -1 153289 3.1680241227149963e-02</internalNodes>
      <leafValues>
        -6.7590698599815369e-02 3.4842669963836670e-01</leafValues></_>
    <_>
      <internalNodes>
        0 -1 139186 -1.6781538724899292e-02</internalNodes>
      <leafValues>
        3.3711159229278564e-01 -7.6973855495452881e-02</leafValues></_>
    <_>
      <internalNodes>
        0 -1 139130 9.6260467544198036e-03</internalNodes>
      <leafValues>
        -8.9772313833236694e-02 3.0602532625198364e-01</leafValues></_>
    <_>
      <internalNodes>
        0 -1 121298 -5.2911130478605628e-04</internalNodes>
      <leafValues>
        -3.4862422943115234e-01 7.1256287395954132e-02</leafValues></_>
    <_>
      <internalNodes>
        0 -1 14376 1.2919900473207235e-03</internalNodes>
      <leafValues>
        -1.4958328008651733e-01 1.5474928915500641e-01</leafValues></_>
    <_>
      <internalNodes>
        0 -1 89065 -1.9266989082098007e-02</internalNodes>
      <leafValues>
        -3.3243525028228760e-01 7.0879124104976654e-02</leafValues></_>
    <_>
      <internalNodes>
        0 -1 89350 -1.0146874934434891e-02</internalNodes>
      <leafValues>
        2.1796725690364838e-01 -1.1429889500141144e-01</leafValues></_>
    <_>
      <internalNodes>
        0 -1 143947 -7.8296326100826263e-03</internalNodes>
      <leafValues>
        -6.1653852462768555e-01 4.0879253298044205e-02</leafValues></_>
    <_>
      <internalNodes>
        0 -1 139080 3.5469268914312124e-04</internalNodes>
      <leafValues>
        8.6199380457401276e-02 -2.8485536575317383e-01</leafValues></_>
    <_>
      <internalNodes>
        0 -1 144271 -3.0548401176929474e-02</internalNodes>
      <leafValues>
        3.8715901970863342e-01 -6.1827611178159714e-02</leafValues></_>
    <_>
      <internalNodes>
        0 -1 148176 -7.0030766073614359e-04</internalNodes>
      <leafValues>
        -3.7011313438415527e-01 6.6385470330715179e-02</leafValues></_>
    <_>
      <internalNodes>
        0 -1 4125 -1.1729463934898376e-02</internalNodes>
      <leafValues>
        5.1125204563140869e-01 -4.5236069709062576e-02</leafValues></_>
    <_>
      <internalNodes>
        0 -1 62845 4.1475673788227141e-04</internalNodes>
      <leafValues>
        7.9938784241676331e-02 -3.0184951424598694e-01</leafValues></_>
    <_>
      <internalNodes>
        0 -1 17694 -1.9056644290685654e-02</internalNodes>
      <leafValues>
        2.2459022700786591e-01 -9.6150897443294525e-02</leafValues></_>
    <_>
      <internalNodes>
        0 -1 154895 -3.5197157412767410e-03</internalNodes>
      <leafValues>
        1.7895075678825378e-01 -1.2140115350484848e-01</leafValues></_>
    <_>
      <internalNodes>
        0 -1 60085 8.6945630609989166e-02</internalNodes>
      <leafValues>
        -7.2538405656814575e-02 3.5327914357185364e-01</leafValues></_></weakClassifiers></stage3>
</opencv_storage>
