<?xml version="1.0"?>
<opencv_storage>
<stage9>
  <maxWeakCount>100</maxWeakCount>
  <stageThreshold>-1.5331883430480957e+00</stageThreshold>
  <weakClassifiers>
    <_>
      <internalNodes>
        0 -1 89802 -3.8089039735496044e-03</internalNodes>
      <leafValues>
        6.8630707263946533e-01 -1.0969213396310806e-01</leafValues></_>
    <_>
      <internalNodes>
        0 -1 38870 2.5812422856688499e-02</internalNodes>
      <leafValues>
        -1.6409368813037872e-01 5.6693243980407715e-01</leafValues></_>
    <_>
      <internalNodes>
        0 -1 20846 1.6844131052494049e-02</internalNodes>
      <leafValues>
        -2.3279431462287903e-01 4.2361712455749512e-01</leafValues></_>
    <_>
      <internalNodes>
        0 -1 161356 -3.4461803734302521e-02</internalNodes>
      <leafValues>
        -2.3262238502502441e-01 2.3742389678955078e-01</leafValues></_>
    <_>
      <internalNodes>
        0 -1 46028 2.3228406906127930e-02</internalNodes>
      <leafValues>
        -1.2387680262327194e-01 3.3907410502433777e-01</leafValues></_>
    <_>
      <internalNodes>
        0 -1 68094 -2.1168960258364677e-02</internalNodes>
      <leafValues>
        2.5989174842834473e-01 -1.1822962760925293e-01</leafValues></_>
    <_>
      <internalNodes>
        0 -1 55398 2.2691583633422852e-01</internalNodes>
      <leafValues>
        4.3597131967544556e-02 -5.9217739105224609e-01</leafValues></_>
    <_>
      <internalNodes>
        0 -1 104652 -7.9890906810760498e-02</internalNodes>
      <leafValues>
        -4.1237002611160278e-01 7.1459837257862091e-02</leafValues></_>
    <_>
      <internalNodes>
        0 -1 143805 -9.7486898303031921e-03</internalNodes>
      <leafValues>
        2.3403340578079224e-01 -1.0440527647733688e-01</leafValues></_>
    <_>
      <internalNodes>
        0 -1 33494 1.7032800614833832e-01</internalNodes>
      <leafValues>
        4.7424655407667160e-02 -4.3669208884239197e-01</leafValues></_>
    <_>
      <internalNodes>
        0 -1 10562 -6.1244964599609375e-03</internalNodes>
      <leafValues>
        -1.6028515994548798e-01 1.4727158844470978e-01</leafValues></_>
    <_>
      <internalNodes>
        0 -1 5842 4.3810559436678886e-03</internalNodes>
      <leafValues>
        -4.9775555729866028e-02 4.9522960186004639e-01</leafValues></_>
    <_>
      <internalNodes>
        0 -1 133194 4.3934630230069160e-03</internalNodes>
      <leafValues>
        -4.0256340056657791e-02 5.0132387876510620e-01</leafValues></_>
    <_>
      <internalNodes>
        0 -1 154855 -3.4194577892776579e-05</internalNodes>
      <leafValues>
        1.4329944550991058e-01 -1.3208316266536713e-01</leafValues></_>
    <_>
      <internalNodes>
        0 -1 151886 -5.6310568470507860e-04</internalNodes>
      <leafValues>
        -2.6882784441113472e-02 8.8813561201095581e-01</leafValues></_>
    <_>
      <internalNodes>
        0 -1 161969 8.6804982274770737e-03</internalNodes>
      <leafValues>
        -5.1083911210298538e-02 2.9275116324424744e-01</leafValues></_>
    <_>
      <internalNodes>
        0 -1 74371 2.1219947934150696e-01</internalNodes>
      <leafValues>
        4.6095646917819977e-02 -4.3828588724136353e-01</leafValues></_>
    <_>
      <internalNodes>
        0 -1 121820 -3.0866792425513268e-02</internalNodes>
      <leafValues>
        3.0361679196357727e-01 -6.2062110751867294e-02</leafValues></_>
    <_>
      <internalNodes>
        0 -1 48242 -4.5468774624168873e-03</internalNodes>
      <leafValues>
        1.8700826168060303e-01 -8.7377324700355530e-02</leafValues></_>
    <_>
      <internalNodes>
        0 -1 36939 5.3985537961125374e-03</internalNodes>
      <leafValues>
        -2.6012383401393890e-02 7.2304427623748779e-01</leafValues></_>
    <_>
      <internalNodes>
        0 -1 49478 -6.3781958306208253e-04</internalNodes>
      <leafValues>
        -1.3942312449216843e-02 8.5515397787094116e-01</leafValues></_>
    <_>
      <internalNodes>
        0 -1 151546 -2.1066743880510330e-02</internalNodes>
      <leafValues>
        4.0823858976364136e-01 -3.3410616219043732e-02</leafValues></_>
    <_>
      <internalNodes>
        0 -1 9936 -1.9910232722759247e-01</internalNodes>
      <leafValues>
        -6.2581193447113037e-01 2.7646562084555626e-02</leafValues></_>
    <_>
      <internalNodes>
        0 -1 127992 5.1419658120721579e-04</internalNodes>
      <leafValues>
        4.7625448554754257e-02 -2.8266659379005432e-01</leafValues></_>
    <_>
      <internalNodes>
        0 -1 121665 2.4838976096361876e-03</internalNodes>
      <leafValues>
        -7.0318683981895447e-02 2.2807866334915161e-01</leafValues></_>
    <_>
      <internalNodes>
        0 -1 76885 -7.3352694511413574e-02</internalNodes>
      <leafValues>
        -2.6313614845275879e-01 5.9325445443391800e-02</leafValues></_>
    <_>
      <internalNodes>
        0 -1 37941 -3.5847355611622334e-03</internalNodes>
      <leafValues>
        2.0334912836551666e-01 -7.7467732131481171e-02</leafValues></_>
    <_>
      <internalNodes>
        0 -1 20067 2.3479228839278221e-03</internalNodes>
      <leafValues>
        -8.4071137011051178e-02 1.8077288568019867e-01</leafValues></_>
    <_>
      <internalNodes>
        0 -1 64398 -4.9241385422646999e-03</internalNodes>
      <leafValues>
        2.1567974984645844e-01 -9.5317468047142029e-02</leafValues></_>
    <_>
      <internalNodes>
        0 -1 133264 -3.7555848393822089e-05</internalNodes>
      <leafValues>
        1.1606471985578537e-01 -1.2410429865121841e-01</leafValues></_>
    <_>
      <internalNodes>
        0 -1 97936 5.8309463784098625e-03</internalNodes>
      <leafValues>
        -1.8910879269242287e-02 7.6476567983627319e-01</leafValues></_>
    <_>
      <internalNodes>
        0 -1 48971 -1.0605245828628540e-01</internalNodes>
      <leafValues>
        -4.8227226734161377e-01 3.3207155764102936e-02</leafValues></_>
    <_>
      <internalNodes>
        0 -1 106670 -3.2986961741698906e-05</internalNodes>
      <leafValues>
        1.1027283966541290e-01 -1.3160681724548340e-01</leafValues></_>
    <_>
      <internalNodes>
        0 -1 37268 1.3212051242589951e-02</internalNodes>
      <leafValues>
        -4.7792408615350723e-02 2.8570029139518738e-01</leafValues></_>
    <_>
      <internalNodes>
        0 -1 64450 7.4245210271328688e-04</internalNodes>
      <leafValues>
        -7.5799152255058289e-02 1.8472020328044891e-01</leafValues></_>
    <_>
      <internalNodes>
        0 -1 102822 -6.9815679453313351e-03</internalNodes>
      <leafValues>
        -2.1131830289959908e-02 6.6462421417236328e-01</leafValues></_>
    <_>
      <internalNodes>
        0 -1 161491 -5.1256185397505760e-03</internalNodes>
      <leafValues>
        2.6039144396781921e-01 -4.4811271131038666e-02</leafValues></_>
    <_>
      <internalNodes>
        0 -1 18265 -1.0912528261542320e-02</internalNodes>
      <leafValues>
        7.6129090785980225e-01 -1.8349368125200272e-02</leafValues></_>
    <_>
      <internalNodes>
        0 -1 154858 2.0170067728031427e-04</internalNodes>
      <leafValues>
        6.9452174007892609e-02 -1.7582376301288605e-01</leafValues></_>
    <_>
      <internalNodes>
        0 -1 6302 -3.4695488214492798e-01</internalNodes>
      <leafValues>
        -6.8111169338226318e-01 1.8771624192595482e-02</leafValues></_>
    <_>
      <internalNodes>
        0 -1 110786 -6.4576730132102966e-02</internalNodes>
      <leafValues>
        -2.9605031013488770e-01 3.9843384176492691e-02</leafValues></_>
    <_>
      <internalNodes>
        0 -1 48158 -9.4522824510931969e-03</internalNodes>
      <leafValues>
        2.8688874840736389e-01 -5.0214495509862900e-02</leafValues></_>
    <_>
      <internalNodes>
        0 -1 89802 -3.8484605029225349e-03</internalNodes>
      <leafValues>
        -1.7390255630016327e-01 7.2517007589340210e-02</leafValues></_>
    <_>
      <internalNodes>
        0 -1 127933 -3.9472568460041657e-05</internalNodes>
      <leafValues>
        1.1713443696498871e-01 -1.3278612494468689e-01</leafValues></_>
    <_>
      <internalNodes>
        0 -1 25539 8.0639068037271500e-03</internalNodes>
      <leafValues>
        -6.4775183796882629e-02 1.9243820011615753e-01</leafValues></_>
    <_>
      <internalNodes>
        0 -1 12809 1.5238329069688916e-04</internalNodes>
      <leafValues>
        9.6063658595085144e-02 -1.4610213041305542e-01</leafValues></_>
    <_>
      <internalNodes>
        0 -1 12539 1.5858751721680164e-03</internalNodes>
      <leafValues>
        -6.3727684319019318e-02 1.7829538881778717e-01</leafValues></_>
    <_>
      <internalNodes>
        0 -1 13375 -8.3655572962015867e-04</internalNodes>
      <leafValues>
        -1.0952833108603954e-02 9.2459356784820557e-01</leafValues></_>
    <_>
      <internalNodes>
        0 -1 155367 -9.7145237028598785e-02</internalNodes>
      <leafValues>
        -7.3692804574966431e-01 1.8050720915198326e-02</leafValues></_>
    <_>
      <internalNodes>
        0 -1 89243 -3.4669332671910524e-03</internalNodes>
      <leafValues>
        5.7926595211029053e-02 -1.8859948217868805e-01</leafValues></_>
    <_>
      <internalNodes>
        0 -1 31550 -1.3786998391151428e-01</internalNodes>
      <leafValues>
        -6.1412197351455688e-01 1.9040362909436226e-02</leafValues></_>
    <_>
      <internalNodes>
        0 -1 157005 -3.9755366742610931e-05</internalNodes>
      <leafValues>
        1.2003975361585617e-01 -9.7720690071582794e-02</leafValues></_>
    <_>
      <internalNodes>
        0 -1 156856 -4.9724271520972252e-03</internalNodes>
      <leafValues>
        1.8656888604164124e-01 -6.9541960954666138e-02</leafValues></_>
    <_>
      <internalNodes>
        0 -1 160735 -1.1163320392370224e-02</internalNodes>
      <leafValues>
        -9.2338897287845612e-02 1.2985292077064514e-01</leafValues></_>
    <_>
      <internalNodes>
        0 -1 110026 1.8998024752363563e-03</internalNodes>
      <leafValues>
        -6.4952947199344635e-02 1.7908647656440735e-01</leafValues></_>
    <_>
      <internalNodes>
        0 -1 123806 -2.0483279600739479e-02</internalNodes>
      <leafValues>
        2.4302606284618378e-01 -5.4470840841531754e-02</leafValues></_>
    <_>
      <internalNodes>
        0 -1 91236 -1.3677324168384075e-03</internalNodes>
      <leafValues>
        -3.3272308111190796e-01 3.8916978985071182e-02</leafValues></_>
    <_>
      <internalNodes>
        0 -1 146846 -3.9038917748257518e-05</internalNodes>
      <leafValues>
        1.1193831264972687e-01 -9.2347957193851471e-02</leafValues></_>
    <_>
      <internalNodes>
        0 -1 135312 1.0702829807996750e-02</internalNodes>
      <leafValues>
        -8.3918310701847076e-02 1.2741206586360931e-01</leafValues></_>
    <_>
      <internalNodes>
        0 -1 148330 -6.0008475556969643e-03</internalNodes>
      <leafValues>
        -4.3259534239768982e-01 2.8089761734008789e-02</leafValues></_>
    <_>
      <internalNodes>
        0 -1 153550 3.3180011087097228e-05</internalNodes>
      <leafValues>
        -9.7245723009109497e-02 1.1792872846126556e-01</leafValues></_>
    <_>
      <internalNodes>
        0 -1 141604 1.1818173527717590e-01</internalNodes>
      <leafValues>
        2.7730613946914673e-02 -3.7665888667106628e-01</leafValues></_>
    <_>
      <internalNodes>
        0 -1 154212 4.2191417887806892e-03</internalNodes>
      <leafValues>
        -7.9950064420700073e-02 1.8080906569957733e-01</leafValues></_>
    <_>
      <internalNodes>
        0 -1 143179 -5.3056791424751282e-02</internalNodes>
      <leafValues>
        -5.0722450017929077e-01 2.3239007219672203e-02</leafValues></_>
    <_>
      <internalNodes>
        0 -1 144718 -2.9949829331599176e-04</internalNodes>
      <leafValues>
        -2.0503360033035278e-01 4.9055788666009903e-02</leafValues></_>
    <_>
      <internalNodes>
        0 -1 143960 -1.4621547597926110e-04</internalNodes>
      <leafValues>
        1.1385744810104370e-01 -9.4426617026329041e-02</leafValues></_>
    <_>
      <internalNodes>
        0 -1 25159 2.6055209338665009e-02</internalNodes>
      <leafValues>
        3.2188419252634048e-02 -3.1831783056259155e-01</leafValues></_>
    <_>
      <internalNodes>
        0 -1 145825 1.6205543279647827e-01</internalNodes>
      <leafValues>
        1.3361751101911068e-02 -7.3611021041870117e-01</leafValues></_>
    <_>
      <internalNodes>
        0 -1 160323 5.8687310665845871e-03</internalNodes>
      <leafValues>
        -5.1605347543954849e-02 2.2436860203742981e-01</leafValues></_>
    <_>
      <internalNodes>
        0 -1 162022 1.5509341028518975e-04</internalNodes>
      <leafValues>
        7.5715519487857819e-02 -1.4163169264793396e-01</leafValues></_>
    <_>
      <internalNodes>
        0 -1 161947 3.2501954119652510e-03</internalNodes>
      <leafValues>
        -2.4641927331686020e-02 4.5544153451919556e-01</leafValues></_>
    <_>
      <internalNodes>
        0 -1 46930 -2.3627865314483643e-01</internalNodes>
      <leafValues>
        -6.4837759733200073e-01 1.7273830249905586e-02</leafValues></_>
    <_>
      <internalNodes>
        0 -1 100559 4.1535924538038671e-05</internalNodes>
      <leafValues>
        -9.0312413871288300e-02 1.1002650856971741e-01</leafValues></_>
    <_>
      <internalNodes>
        0 -1 151884 -4.0840764995664358e-05</internalNodes>
      <leafValues>
        1.0765788704156876e-01 -9.5847919583320618e-02</leafValues></_>
    <_>
      <internalNodes>
        0 -1 158646 8.0894976854324341e-03</internalNodes>
      <leafValues>
        1.5393008477985859e-02 -6.7943298816680908e-01</leafValues></_>
    <_>
      <internalNodes>
        0 -1 7561 -1.3998126983642578e-01</internalNodes>
      <leafValues>
        -6.2234777212142944e-01 1.4644508250057697e-02</leafValues></_>
    <_>
      <internalNodes>
        0 -1 9463 6.7151873372495174e-03</internalNodes>
      <leafValues>
        -3.2827842980623245e-02 4.3818473815917969e-01</leafValues></_>
    <_>
      <internalNodes>
        0 -1 113560 -9.9407603556755930e-05</internalNodes>
      <leafValues>
        9.2309184372425079e-02 -1.1031883209943771e-01</leafValues></_>
    <_>
      <internalNodes>
        0 -1 98629 7.8243827447295189e-03</internalNodes>
      <leafValues>
        -4.1528768837451935e-02 2.5582289695739746e-01</leafValues></_>
    <_>
      <internalNodes>
        0 -1 98579 -1.8015852198004723e-02</internalNodes>
      <leafValues>
        -6.0024511814117432e-01 1.6069548204541206e-02</leafValues></_>
    <_>
      <internalNodes>
        0 -1 98743 -8.0073652788996696e-03</internalNodes>
      <leafValues>
        2.2675837576389313e-01 -4.5928247272968292e-02</leafValues></_>
    <_>
      <internalNodes>
        0 -1 1065 -1.0944473743438721e-01</internalNodes>
      <leafValues>
        -8.1263512372970581e-02 1.5023943781852722e-01</leafValues></_>
    <_>
      <internalNodes>
        0 -1 4287 -1.2069370131939650e-03</internalNodes>
      <leafValues>
        1.1960863322019577e-01 -9.2613458633422852e-02</leafValues></_>
    <_>
      <internalNodes>
        0 -1 75533 4.1503611207008362e-01</internalNodes>
      <leafValues>
        1.4293665997684002e-02 -8.1543159484863281e-01</leafValues></_>
    <_>
      <internalNodes>
        0 -1 30150 3.9020407199859619e-01</internalNodes>
      <leafValues>
        -2.2953296080231667e-02 6.0602647066116333e-01</leafValues></_>
    <_>
      <internalNodes>
        0 -1 159982 -4.8902314156293869e-03</internalNodes>
      <leafValues>
        3.7678900361061096e-01 -2.6686910539865494e-02</leafValues></_>
    <_>
      <internalNodes>
        0 -1 59201 -3.5609518818091601e-05</internalNodes>
      <leafValues>
        1.0206001996994019e-01 -1.0056528449058533e-01</leafValues></_>
    <_>
      <internalNodes>
        0 -1 6679 6.4242715016007423e-03</internalNodes>
      <leafValues>
        -2.2968729957938194e-02 4.6003979444503784e-01</leafValues></_>
    <_>
      <internalNodes>
        0 -1 58880 1.9766860350500792e-04</internalNodes>
      <leafValues>
        6.4313970506191254e-02 -1.8636643886566162e-01</leafValues></_>
    <_>
      <internalNodes>
        0 -1 97889 2.1800077520310879e-03</internalNodes>
      <leafValues>
        -1.4375703409314156e-02 6.8892717361450195e-01</leafValues></_>
    <_>
      <internalNodes>
        0 -1 44450 2.5615789927542210e-03</internalNodes>
      <leafValues>
        -3.3827852457761765e-02 2.7402514219284058e-01</leafValues></_>
    <_>
      <internalNodes>
        0 -1 74661 5.2026569843292236e-02</internalNodes>
      <leafValues>
        3.2677739858627319e-02 -3.6454874277114868e-01</leafValues></_>
    <_>
      <internalNodes>
        0 -1 6514 1.4206210151314735e-02</internalNodes>
      <leafValues>
        -8.9110247790813446e-02 1.1859758943319321e-01</leafValues></_>
    <_>
      <internalNodes>
        0 -1 74320 6.7976325750350952e-02</internalNodes>
      <leafValues>
        5.9793017804622650e-02 -1.7846544086933136e-01</leafValues></_>
    <_>
      <internalNodes>
        0 -1 114081 -3.2033000607043505e-03</internalNodes>
      <leafValues>
        5.3505204617977142e-02 -1.9903779029846191e-01</leafValues></_>
    <_>
      <internalNodes>
        0 -1 66832 -6.8581150844693184e-03</internalNodes>
      <leafValues>
        -2.9976177960634232e-02 4.2328736186027527e-01</leafValues></_>
    <_>
      <internalNodes>
        0 -1 116038 -3.4915638389065862e-04</internalNodes>
      <leafValues>
        -2.3098903894424438e-01 4.6448491513729095e-02</leafValues></_>
    <_>
      <internalNodes>
        0 -1 95945 1.2714150547981262e-01</internalNodes>
      <leafValues>
        1.4185044914484024e-02 -7.0449501276016235e-01</leafValues></_>
    <_>
      <internalNodes>
        0 -1 131566 -1.6254498623311520e-03</internalNodes>
      <leafValues>
        -1.5670094639062881e-02 7.9551666975021362e-01</leafValues></_>
    <_>
      <internalNodes>
        0 -1 130173 1.8205953529104590e-04</internalNodes>
      <leafValues>
        6.4984478056430817e-02 -1.5696388483047485e-01</leafValues></_></weakClassifiers></stage9>
</opencv_storage>
