<?xml version="1.0"?>
<opencv_storage>
<cascade>
  <stageType>BOOST</stageType>
  <featureType>HAAR</featureType>
  <height>24</height>
  <width>24</width>
  <stageParams>
    <boostType>GAB</boostType>
    <minHitRate>9.9500000476837158e-01</minHitRate>
    <maxFalseAlarm>5.0000000000000000e-01</maxFalseAlarm>
    <weightTrimRate>9.4999999999999996e-01</weightTrimRate>
    <maxDepth>1</maxDepth>
    <maxWeakCount>100</maxWeakCount></stageParams>
  <featureParams>
    <maxCatCount>0</maxCatCount>
    <featSize>1</featSize>
    <mode>BASIC</mode></featureParams>
  <stageNum>20</stageNum>
  <stages>
    <!-- stage 0 -->
    <_>
      <maxWeakCount>5</maxWeakCount>
      <stageThreshold>-9.6792870759963989e-01</stageThreshold>
      <weakClassifiers>
        <_>
          <internalNodes>
            0 -1 28 7.0663072168827057e-02</internalNodes>
          <leafValues>
            -5.7085019350051880e-01 7.7358490228652954e-01</leafValues></_>
        <_>
          <internalNodes>
            0 -1 91 -2.7551355306059122e-03</internalNodes>
          <leafValues>
            4.0134695172309875e-01 -6.0066288709640503e-01</leafValues></_>
        <_>
          <internalNodes>
            0 -1 125 -3.6339783109724522e-03</internalNodes>
          <leafValues>
            -9.7033494710922241e-01 2.1650645136833191e-01</leafValues></_>
        <_>
          <internalNodes>
            0 -1 44 -4.5356661081314087e-02</internalNodes>
          <leafValues>
            8.5735630989074707e-01 -3.0371055006980896e-01</leafValues></_>
        <_>
          <internalNodes>
            0 -1 60 8.3988730330020189e-04</internalNodes>
          <leafValues>
            2.9078847169876099e-01 -9.7803229093551636e-01</leafValues></_></weakClassifiers></_>
    <!-- stage 1 -->
    <_>
      <maxWeakCount>5</maxWeakCount>
      <stageThreshold>-9.3147701025009155e-01</stageThreshold>
      <weakClassifiers>
        <_>
          <internalNodes>
            0 -1 129 -5.1616411656141281e-02</internalNodes>
          <leafValues>
            -4.7058823704719543e-01 1.</leafValues></_>
        <_>
          <internalNodes>
            0 -1 1 4.2623139917850494e-02</internalNodes>
          <leafValues>
            -5.4032069444656372e-01 4.4605362415313721e-01</leafValues></_>
        <_>
          <internalNodes>
            0 -1 82 7.9385319259017706e-04</internalNodes>
          <leafValues>
            3.3016377687454224e-01 -8.9730477333068848e-01</leafValues></_>
        <_>
          <internalNodes>
            0 -1 90 -2.2076657041907310e-03</internalNodes>
          <leafValues>
            -8.7145954370498657e-01 2.4766597151756287e-01</leafValues></_>
        <_>
          <internalNodes>
            0 -1 114 3.3815443515777588e-02</internalNodes>
          <leafValues>
            -3.6564666032791138e-01 6.5824794769287109e-01</leafValues></_></weakClassifiers></_>
    <!-- stage 2 -->
    <_>
      <maxWeakCount>6</maxWeakCount>
      <stageThreshold>-8.9785528182983398e-01</stageThreshold>
      <weakClassifiers>
        <_>
          <internalNodes>
            0 -1 78 -1.2586576864123344e-02</internalNodes>
          <leafValues>
            1.8965516984462738e-01 -6.6304349899291992e-01</leafValues></_>
        <_>
          <internalNodes>
            0 -1 69 -1.0136140044778585e-03</internalNodes>
          <leafValues>
            -7.4067717790603638e-01 2.0661301910877228e-01</leafValues></_>
        <_>
          <internalNodes>
            0 -1 93 -2.8254862409085035e-03</internalNodes>
          <leafValues>
            -8.5116982460021973e-01 1.7478542029857635e-01</leafValues></_>
        <_>
          <internalNodes>
            0 -1 100 3.3496435731649399e-02</internalNodes>
          <leafValues>
            -3.1436741352081299e-01 6.1069095134735107e-01</leafValues></_>
        <_>
          <internalNodes>
            0 -1 108 2.2622656542807817e-03</internalNodes>
          <leafValues>
            2.5551503896713257e-01 -8.7392026185989380e-01</leafValues></_>
        <_>
          <internalNodes>
            0 -1 130 -7.4321799911558628e-04</internalNodes>
          <leafValues>
            3.8993239402770996e-01 -5.5545175075531006e-01</leafValues></_></weakClassifiers></_>
    <!-- stage 3 -->
    <_>
      <maxWeakCount>6</maxWeakCount>
      <stageThreshold>-1.0731294155120850e+00</stageThreshold>
      <weakClassifiers>
        <_>
          <internalNodes>
            0 -1 15 -4.9933329224586487e-02</internalNodes>
          <leafValues>
            -5.5000001192092896e-01 5.3333336114883423e-01</leafValues></_>
        <_>
          <internalNodes>
            0 -1 63 -3.4748730249702930e-03</internalNodes>
          <leafValues>
            5.4222124814987183e-01 -3.8591545820236206e-01</leafValues></_>
        <_>
          <internalNodes>
            0 -1 48 -4.2623605579137802e-02</internalNodes>
          <leafValues>
            3.5199293494224548e-01 -5.5761462450027466e-01</leafValues></_>
        <_>
          <internalNodes>
            0 -1 82 -5.4346222896128893e-04</internalNodes>
          <leafValues>
            -7.8506684303283691e-01 2.7686104178428650e-01</leafValues></_>
        <_>
          <internalNodes>
            0 -1 42 -7.0646449923515320e-02</internalNodes>
          <leafValues>
            8.3341246843338013e-01 -2.9285719990730286e-01</leafValues></_>
        <_>
          <internalNodes>
            0 -1 8 -9.1382127720862627e-04</internalNodes>
          <leafValues>
            -7.2424423694610596e-01 4.3639674782752991e-01</leafValues></_></weakClassifiers></_>
    <!-- stage 4 -->
    <_>
      <maxWeakCount>5</maxWeakCount>
      <stageThreshold>-9.5192056894302368e-01</stageThreshold>
      <weakClassifiers>
        <_>
          <internalNodes>
            0 -1 50 -1.5350602567195892e-01</internalNodes>
          <leafValues>
            -6.1111110448837280e-01 3.8095238804817200e-01</leafValues></_>
        <_>
          <internalNodes>
            0 -1 37 6.7419288679957390e-03</internalNodes>
          <leafValues>
            -4.4421651959419250e-01 5.1514780521392822e-01</leafValues></_>
        <_>
          <internalNodes>
            0 -1 102 -1.4428669819608331e-03</internalNodes>
          <leafValues>
            -7.9922664165496826e-01 2.1229307353496552e-01</leafValues></_>
        <_>
          <internalNodes>
            0 -1 117 2.0689014345407486e-03</internalNodes>
          <leafValues>
            2.8203260898590088e-01 -6.8596869707107544e-01</leafValues></_>
        <_>
          <internalNodes>
            0 -1 126 1.1654938571155071e-03</internalNodes>
          <leafValues>
            -3.8228166103363037e-01 4.7427189350128174e-01</leafValues></_></weakClassifiers></_>
    <!-- stage 5 -->
    <_>
      <maxWeakCount>5</maxWeakCount>
      <stageThreshold>-1.2874850034713745e+00</stageThreshold>
      <weakClassifiers>
        <_>
          <internalNodes>
            0 -1 79 -3.8734111003577709e-03</internalNodes>
          <leafValues>
            2.4074074625968933e-01 -6.5625000000000000e-01</leafValues></_>
        <_>
          <internalNodes>
            0 -1 6 -3.0088111758232117e-01</internalNodes>
          <leafValues>
            -6.2083619832992554e-01 3.5950365662574768e-01</leafValues></_>
        <_>
          <internalNodes>
            0 -1 101 2.4702302180230618e-03</internalNodes>
          <leafValues>
            -4.2191347479820251e-01 4.9582642316818237e-01</leafValues></_>
        <_>
          <internalNodes>
            0 -1 52 1.4132609590888023e-02</internalNodes>
          <leafValues>
            -3.3396342396736145e-01 5.9527170658111572e-01</leafValues></_>
        <_>
          <internalNodes>
            0 -1 72 -5.3211968392133713e-02</internalNodes>
          <leafValues>
            7.3514705896377563e-01 -2.3486177623271942e-01</leafValues></_></weakClassifiers></_>
    <!-- stage 6 -->
    <_>
      <maxWeakCount>7</maxWeakCount>
      <stageThreshold>-9.0905916690826416e-01</stageThreshold>
      <weakClassifiers>
        <_>
          <internalNodes>
            0 -1 12 -1.1532196775078773e-02</internalNodes>
          <leafValues>
            -4.8679244518280029e-01 8.2857143878936768e-01</leafValues></_>
        <_>
          <internalNodes>
            0 -1 120 -1.4671891927719116e-02</internalNodes>
          <leafValues>
            4.4307118654251099e-01 -4.3138551712036133e-01</leafValues></_>
        <_>
          <internalNodes>
            0 -1 109 1.4239748939871788e-02</internalNodes>
          <leafValues>
            -5.1780372858047485e-01 3.9067372679710388e-01</leafValues></_>
        <_>
          <internalNodes>
            0 -1 26 4.8724422231316566e-03</internalNodes>
          <leafValues>
            -2.6564136147499084e-01 7.1012413501739502e-01</leafValues></_>
        <_>
          <internalNodes>
            0 -1 99 -6.3156653195619583e-03</internalNodes>
          <leafValues>
            -4.7366833686828613e-01 4.1606247425079346e-01</leafValues></_>
        <_>
          <internalNodes>
            0 -1 112 6.4757429063320160e-03</internalNodes>
          <leafValues>
            -2.0598754286766052e-01 7.8046101331710815e-01</leafValues></_>
        <_>
          <internalNodes>
            0 -1 70 -1.7363756895065308e-02</internalNodes>
          <leafValues>
            5.6608009338378906e-01 -2.9196771979331970e-01</leafValues></_></weakClassifiers></_>
    <!-- stage 7 -->
    <_>
      <maxWeakCount>3</maxWeakCount>
      <stageThreshold>-9.3612188100814819e-01</stageThreshold>
      <weakClassifiers>
        <_>
          <internalNodes>
            0 -1 4 1.3462656643241644e-03</internalNodes>
          <leafValues>
            -7.6744186878204346e-01 2.5000000000000000e-01</leafValues></_>
        <_>
          <internalNodes>
            0 -1 55 6.5653002820909023e-04</internalNodes>
          <leafValues>
            -6.5415769815444946e-01 3.4948489069938660e-01</leafValues></_>
        <_>
          <internalNodes>
            0 -1 116 -3.5783795174211264e-03</internalNodes>
          <leafValues>
            4.9564918875694275e-01 -5.1816487312316895e-01</leafValues></_></weakClassifiers></_>
    <!-- stage 8 -->
    <_>
      <maxWeakCount>7</maxWeakCount>
      <stageThreshold>-9.8430103063583374e-01</stageThreshold>
      <weakClassifiers>
        <_>
          <internalNodes>
            0 -1 10 1.6691576689481735e-02</internalNodes>
          <leafValues>
            -5.7499998807907104e-01 6.3333332538604736e-01</leafValues></_>
        <_>
          <internalNodes>
            0 -1 27 -6.5248325467109680e-02</internalNodes>
          <leafValues>
            7.6268202066421509e-01 -2.7104833722114563e-01</leafValues></_>
        <_>
          <internalNodes>
            0 -1 85 -8.8131637312471867e-04</internalNodes>
          <leafValues>
            4.6002632379531860e-01 -3.2697555422782898e-01</leafValues></_>
        <_>
          <internalNodes>
            0 -1 59 -1.5246435999870300e-01</internalNodes>
          <leafValues>
            -4.2033359408378601e-01 3.8121375441551208e-01</leafValues></_>
        <_>
          <internalNodes>
            0 -1 136 3.9768900023773313e-04</internalNodes>
          <leafValues>
            2.1436108648777008e-01 -7.4850058555603027e-01</leafValues></_>
        <_>
          <internalNodes>
            0 -1 13 2.8886017389595509e-04</internalNodes>
          <leafValues>
            -4.3667525053024292e-01 3.5302898287773132e-01</leafValues></_>
        <_>
          <internalNodes>
            0 -1 106 1.8159541650675237e-04</internalNodes>
          <leafValues>
            2.0298068225383759e-01 -6.4884436130523682e-01</leafValues></_></weakClassifiers></_>
    <!-- stage 9 -->
    <_>
      <maxWeakCount>8</maxWeakCount>
      <stageThreshold>-9.9550563097000122e-01</stageThreshold>
      <weakClassifiers>
        <_>
          <internalNodes>
            0 -1 139 -3.6790743470191956e-03</internalNodes>
          <leafValues>
            5.0000000000000000e-01 -5.4166668653488159e-01</leafValues></_>
        <_>
          <internalNodes>
            0 -1 57 -2.0350763224996626e-04</internalNodes>
          <leafValues>
            3.7418714165687561e-01 -4.1263836622238159e-01</leafValues></_>
        <_>
          <internalNodes>
            0 -1 58 -4.0419876575469971e-02</internalNodes>
          <leafValues>
            5.2592015266418457e-01 -3.1093692779541016e-01</leafValues></_>
        <_>
          <internalNodes>
            0 -1 131 -6.0413493774831295e-03</internalNodes>
          <leafValues>
            6.2712872028350830e-01 -2.6497656106948853e-01</leafValues></_>
        <_>
          <internalNodes>
            0 -1 35 1.1176463216543198e-02</internalNodes>
          <leafValues>
            -3.2238349318504333e-01 3.8773390650749207e-01</leafValues></_>
        <_>
          <internalNodes>
            0 -1 97 9.3374500283971429e-04</internalNodes>
          <leafValues>
            2.3219220340251923e-01 -6.8055456876754761e-01</leafValues></_>
        <_>
          <internalNodes>
            0 -1 121 -1.2180123012512922e-03</internalNodes>
          <leafValues>
            4.5592057704925537e-01 -3.0419066548347473e-01</leafValues></_>
        <_>
          <internalNodes>
            0 -1 61 8.4394827717915177e-04</internalNodes>
          <leafValues>
            2.1897748112678528e-01 -7.9706472158432007e-01</leafValues></_></weakClassifiers></_>
    <!-- stage 10 -->
    <_>
      <maxWeakCount>9</maxWeakCount>
      <stageThreshold>-1.1004250049591064e+00</stageThreshold>
      <weakClassifiers>
        <_>
          <internalNodes>
            0 -1 5 -2.5302672386169434e-01</internalNodes>
          <leafValues>
            -5.2941179275512695e-01 4.1935482621192932e-01</leafValues></_>
        <_>
          <internalNodes>
            0 -1 3 7.9025905579328537e-03</internalNodes>
          <leafValues>
            -2.6215943694114685e-01 6.5882909297943115e-01</leafValues></_>
        <_>
          <internalNodes>
            0 -1 89 -2.1889962255954742e-02</internalNodes>
          <leafValues>
            3.2213866710662842e-01 -4.5398017764091492e-01</leafValues></_>
        <_>
          <internalNodes>
            0 -1 98 -4.9940301105380058e-03</internalNodes>
          <leafValues>
            3.0867192149162292e-01 -4.2751970887184143e-01</leafValues></_>
        <_>
          <internalNodes>
            0 -1 123 -9.8011434078216553e-02</internalNodes>
          <leafValues>
            -4.3269604444503784e-01 3.5387167334556580e-01</leafValues></_>
        <_>
          <internalNodes>
            0 -1 7 1.3473087921738625e-02</internalNodes>
          <leafValues>
            -3.0046153068542480e-01 4.3200388550758362e-01</leafValues></_>
        <_>
          <internalNodes>
            0 -1 41 -7.4449107050895691e-02</internalNodes>
          <leafValues>
            6.8029105663299561e-01 -2.1324999630451202e-01</leafValues></_>
        <_>
          <internalNodes>
            0 -1 31 1.4341145753860474e-02</internalNodes>
          <leafValues>
            -2.3286668956279755e-01 5.4492384195327759e-01</leafValues></_>
        <_>
          <internalNodes>
            0 -1 75 -1.0729064524639398e-04</internalNodes>
          <leafValues>
            -5.6269204616546631e-01 2.3960983753204346e-01</leafValues></_></weakClassifiers></_>
    <!-- stage 11 -->
    <_>
      <maxWeakCount>4</maxWeakCount>
      <stageThreshold>-8.3862859010696411e-01</stageThreshold>
      <weakClassifiers>
        <_>
          <internalNodes>
            0 -1 87 -1.0564820468425751e-01</internalNodes>
          <leafValues>
            -8.0124223232269287e-01 2.0863309502601624e-01</leafValues></_>
        <_>
          <internalNodes>
            0 -1 33 9.1360980877652764e-04</internalNodes>
          <leafValues>
            -4.8951843380928040e-01 2.6527702808380127e-01</leafValues></_>
        <_>
          <internalNodes>
            0 -1 68 -2.9280787706375122e-01</internalNodes>
          <leafValues>
            -8.4858942031860352e-01 1.9871115684509277e-01</leafValues></_>
        <_>
          <internalNodes>
            0 -1 128 -6.6323354840278625e-03</internalNodes>
          <leafValues>
            5.4592603445053101e-01 -3.4374341368675232e-01</leafValues></_></weakClassifiers></_>
    <!-- stage 12 -->
    <_>
      <maxWeakCount>6</maxWeakCount>
      <stageThreshold>-7.5823253393173218e-01</stageThreshold>
      <weakClassifiers>
        <_>
          <internalNodes>
            0 -1 80 -6.5080802887678146e-03</internalNodes>
          <leafValues>
            4.2857143282890320e-01 -5.6521737575531006e-01</leafValues></_>
        <_>
          <internalNodes>
            0 -1 34 -2.2160805761814117e-01</internalNodes>
          <leafValues>
            1.3372619450092316e-01 -1.</leafValues></_>
        <_>
          <internalNodes>
            0 -1 54 -2.9275529086589813e-02</internalNodes>
          <leafValues>
            5.8581650257110596e-01 -2.8461703658103943e-01</leafValues></_>
        <_>
          <internalNodes>
            0 -1 24 -7.6420366764068604e-02</internalNodes>
          <leafValues>
            2.5874054431915283e-01 -6.7791855335235596e-01</leafValues></_>
        <_>
          <internalNodes>
            0 -1 74 6.5057769417762756e-02</internalNodes>
          <leafValues>
            1.7493167519569397e-01 -8.3569955825805664e-01</leafValues></_>
        <_>
          <internalNodes>
            0 -1 29 2.3506116122007370e-03</internalNodes>
          <leafValues>
            -3.2661306858062744e-01 5.3483468294143677e-01</leafValues></_></weakClassifiers></_>
    <!-- stage 13 -->
    <_>
      <maxWeakCount>8</maxWeakCount>
      <stageThreshold>-1.2830182313919067e+00</stageThreshold>
      <weakClassifiers>
        <_>
          <internalNodes>
            0 -1 140 -1.8479849677532911e-03</internalNodes>
          <leafValues>
            2.8735631704330444e-01 -5.8685445785522461e-01</leafValues></_>
        <_>
          <internalNodes>
            0 -1 47 3.6950786598026752e-03</internalNodes>
          <leafValues>
            -4.9978828430175781e-01 3.5395193099975586e-01</leafValues></_>
        <_>
          <internalNodes>
            0 -1 103 8.6294673383235931e-04</internalNodes>
          <leafValues>
            -2.8969520330429077e-01 5.9706687927246094e-01</leafValues></_>
        <_>
          <internalNodes>
            0 -1 49 -4.8514073714613914e-03</internalNodes>
          <leafValues>
            4.8820295929908752e-01 -3.4394082427024841e-01</leafValues></_>
        <_>
          <internalNodes>
            0 -1 32 2.0580864511430264e-03</internalNodes>
          <leafValues>
            -3.1455764174461365e-01 4.6437403559684753e-01</leafValues></_>
        <_>
          <internalNodes>
            0 -1 104 -7.5498111546039581e-03</internalNodes>
          <leafValues>
            4.2643529176712036e-01 -3.5762119293212891e-01</leafValues></_>
        <_>
          <internalNodes>
            0 -1 105 -4.5760804787278175e-03</internalNodes>
          <leafValues>
            5.3610026836395264e-01 -2.9254528880119324e-01</leafValues></_>
        <_>
          <internalNodes>
            0 -1 107 -2.0479860249906778e-03</internalNodes>
          <leafValues>
            5.1522254943847656e-01 -2.6500633358955383e-01</leafValues></_></weakClassifiers></_>
    <!-- stage 14 -->
    <_>
      <maxWeakCount>13</maxWeakCount>
      <stageThreshold>-8.8488471508026123e-01</stageThreshold>
      <weakClassifiers>
        <_>
          <internalNodes>
            0 -1 88 -1.6945652663707733e-02</internalNodes>
          <leafValues>
            3.1343284249305725e-01 -5.1931327581405640e-01</leafValues></_>
        <_>
          <internalNodes>
            0 -1 138 -5.6182383559644222e-03</internalNodes>
          <leafValues>
            5.1351463794708252e-01 -2.7733558416366577e-01</leafValues></_>
        <_>
          <internalNodes>
            0 -1 43 -2.3422718048095703e-01</internalNodes>
          <leafValues>
            4.4916874170303345e-01 -3.1590563058853149e-01</leafValues></_>
        <_>
          <internalNodes>
            0 -1 83 1.1196481063961983e-03</internalNodes>
          <leafValues>
            -3.0691957473754883e-01 4.3042623996734619e-01</leafValues></_>
        <_>
          <internalNodes>
            0 -1 71 1.5764044597744942e-02</internalNodes>
          <leafValues>
            -1.6124679148197174e-01 6.6703462600708008e-01</leafValues></_>
        <_>
          <internalNodes>
            0 -1 94 -1.4370713382959366e-02</internalNodes>
          <leafValues>
            -6.5361481904983521e-01 1.9505105912685394e-01</leafValues></_>
        <_>
          <internalNodes>
            0 -1 56 -7.7430717647075653e-04</internalNodes>
          <leafValues>
            3.5337734222412109e-01 -3.1657153367996216e-01</leafValues></_>
        <_>
          <internalNodes>
            0 -1 18 1.7573779914528131e-03</internalNodes>
          <leafValues>
            -1.5202851593494415e-01 7.4088525772094727e-01</leafValues></_>
        <_>
          <internalNodes>
            0 -1 21 -2.0689339726231992e-04</internalNodes>
          <leafValues>
            2.9165604710578918e-01 -4.0957769751548767e-01</leafValues></_>
        <_>
          <internalNodes>
            0 -1 132 2.0468163711484522e-05</internalNodes>
          <leafValues>
            -4.1728284955024719e-01 2.8383827209472656e-01</leafValues></_>
        <_>
          <internalNodes>
            0 -1 115 3.6415606737136841e-02</internalNodes>
          <leafValues>
            1.4778122305870056e-01 -8.3862042427062988e-01</leafValues></_>
        <_>
          <internalNodes>
            0 -1 22 -2.6088628917932510e-02</internalNodes>
          <leafValues>
            6.9900667667388916e-01 -2.1806666254997253e-01</leafValues></_>
        <_>
          <internalNodes>
            0 -1 134 5.2542071789503098e-03</internalNodes>
          <leafValues>
            -1.8776923418045044e-01 5.7893997430801392e-01</leafValues></_></weakClassifiers></_>
    <!-- stage 15 -->
    <_>
      <maxWeakCount>9</maxWeakCount>
      <stageThreshold>-1.2644121646881104e+00</stageThreshold>
      <weakClassifiers>
        <_>
          <internalNodes>
            0 -1 2 1.1770416051149368e-02</internalNodes>
          <leafValues>
            -5.2988046407699585e-01 6.7346936464309692e-01</leafValues></_>
        <_>
          <internalNodes>
            0 -1 25 -3.0880323611199856e-03</internalNodes>
          <leafValues>
            5.9969478845596313e-01 -3.8022863864898682e-01</leafValues></_>
        <_>
          <internalNodes>
            0 -1 53 4.9151340499520302e-03</internalNodes>
          <leafValues>
            4.7086924314498901e-01 -4.2240813374519348e-01</leafValues></_>
        <_>
          <internalNodes>
            0 -1 86 -1.0429766029119492e-02</internalNodes>
          <leafValues>
            3.5848295688629150e-01 -4.2418092489242554e-01</leafValues></_>
        <_>
          <internalNodes>
            0 -1 46 1.6039770096540451e-02</internalNodes>
          <leafValues>
            -1.9917258620262146e-01 8.1200045347213745e-01</leafValues></_>
        <_>
          <internalNodes>
            0 -1 11 -9.6377613954246044e-04</internalNodes>
          <leafValues>
            5.4856395721435547e-01 -2.4198669195175171e-01</leafValues></_>
        <_>
          <internalNodes>
            0 -1 36 2.2034016437828541e-03</internalNodes>
          <leafValues>
            -2.1629206836223602e-01 6.2704271078109741e-01</leafValues></_>
        <_>
          <internalNodes>
            0 -1 96 -5.2964672446250916e-02</internalNodes>
          <leafValues>
            -2.0326507091522217e-01 7.8703868389129639e-01</leafValues></_>
        <_>
          <internalNodes>
            0 -1 113 4.9000669969245791e-04</internalNodes>
          <leafValues>
            -2.4411891400814056e-01 5.7033860683441162e-01</leafValues></_></weakClassifiers></_>
    <!-- stage 16 -->
    <_>
      <maxWeakCount>10</maxWeakCount>
      <stageThreshold>-9.6768909692764282e-01</stageThreshold>
      <weakClassifiers>
        <_>
          <internalNodes>
            0 -1 84 3.8574975915253162e-03</internalNodes>
          <leafValues>
            -5.4751133918762207e-01 2.6582279801368713e-01</leafValues></_>
        <_>
          <internalNodes>
            0 -1 40 2.7248337864875793e-03</internalNodes>
          <leafValues>
            -4.0596547722816467e-01 2.4282309412956238e-01</leafValues></_>
        <_>
          <internalNodes>
            0 -1 127 3.8409098051488400e-03</internalNodes>
          <leafValues>
            1.1833724379539490e-01 -8.8405340909957886e-01</leafValues></_>
        <_>
          <internalNodes>
            0 -1 110 -1.0530218482017517e-01</internalNodes>
          <leafValues>
            -8.3486002683639526e-01 1.2855802476406097e-01</leafValues></_>
        <_>
          <internalNodes>
            0 -1 16 7.8602420398965478e-04</internalNodes>
          <leafValues>
            -3.9703139662742615e-01 2.6244184374809265e-01</leafValues></_>
        <_>
          <internalNodes>
            0 -1 77 1.3315973337739706e-03</internalNodes>
          <leafValues>
            1.7943793535232544e-01 -7.3837381601333618e-01</leafValues></_>
        <_>
          <internalNodes>
            0 -1 39 -1.1402327567338943e-02</internalNodes>
          <leafValues>
            6.8525749444961548e-01 -2.4448177218437195e-01</leafValues></_>
        <_>
          <internalNodes>
            0 -1 65 1.6115035396069288e-03</internalNodes>
          <leafValues>
            2.0107622444629669e-01 -5.8900445699691772e-01</leafValues></_>
        <_>
          <internalNodes>
            0 -1 119 -3.1937308609485626e-02</internalNodes>
          <leafValues>
            -1.6611075401306152e-01 7.0739060640335083e-01</leafValues></_>
        <_>
          <internalNodes>
            0 -1 9 2.1118179574841633e-05</internalNodes>
          <leafValues>
            -3.7211960554122925e-01 3.0729424953460693e-01</leafValues></_></weakClassifiers></_>
    <!-- stage 17 -->
    <_>
      <maxWeakCount>8</maxWeakCount>
      <stageThreshold>-7.2515606880187988e-01</stageThreshold>
      <weakClassifiers>
        <_>
          <internalNodes>
            0 -1 137 -7.1610584855079651e-03</internalNodes>
          <leafValues>
            -5.1541852951049805e-01 2.3287671804428101e-01</leafValues></_>
        <_>
          <internalNodes>
            0 -1 135 -2.2943499498069286e-03</internalNodes>
          <leafValues>
            4.3961367011070251e-01 -2.7614361047744751e-01</leafValues></_>
        <_>
          <internalNodes>
            0 -1 0 -1.7464971169829369e-02</internalNodes>
          <leafValues>
            -1. 1.4149284362792969e-01</leafValues></_>
        <_>
          <internalNodes>
            0 -1 81 -7.2112511843442917e-03</internalNodes>
          <leafValues>
            1.6691398620605469e-01 -7.8394037485122681e-01</leafValues></_>
        <_>
          <internalNodes>
            0 -1 38 4.4628549367189407e-03</internalNodes>
          <leafValues>
            -1.9956544041633606e-01 8.3745205402374268e-01</leafValues></_>
        <_>
          <internalNodes>
            0 -1 76 -4.4536571949720383e-03</internalNodes>
          <leafValues>
            5.3534954786300659e-01 -1.7441542446613312e-01</leafValues></_>
        <_>
          <internalNodes>
            0 -1 122 4.3466631323099136e-03</internalNodes>
          <leafValues>
            -1.6258582472801208e-01 7.8669077157974243e-01</leafValues></_>
        <_>
          <internalNodes>
            0 -1 124 -1.9579692161642015e-04</internalNodes>
          <leafValues>
            3.4051489830017090e-01 -4.1519904136657715e-01</leafValues></_></weakClassifiers></_>
    <!-- stage 18 -->
    <_>
      <maxWeakCount>10</maxWeakCount>
      <stageThreshold>-7.9661446809768677e-01</stageThreshold>
      <weakClassifiers>
        <_>
          <internalNodes>
            0 -1 19 -3.8907688576728106e-03</internalNodes>
          <leafValues>
            4.0909090638160706e-01 -4.6093750000000000e-01</leafValues></_>
        <_>
          <internalNodes>
            0 -1 67 9.8341703414916992e-03</internalNodes>
          <leafValues>
            8.3423584699630737e-02 -9.5380753278732300e-01</leafValues></_>
        <_>
          <internalNodes>
            0 -1 62 6.1127971857786179e-03</internalNodes>
          <leafValues>
            -2.1323028206825256e-01 5.3455352783203125e-01</leafValues></_>
        <_>
          <internalNodes>
            0 -1 14 2.1789401769638062e-02</internalNodes>
          <leafValues>
            -4.0719616413116455e-01 2.7218931913375854e-01</leafValues></_>
        <_>
          <internalNodes>
            0 -1 111 -1.6846628859639168e-03</internalNodes>
          <leafValues>
            8.0065572261810303e-01 -1.2539364397525787e-01</leafValues></_>
        <_>
          <internalNodes>
            0 -1 45 -3.0344478785991669e-02</internalNodes>
          <leafValues>
            5.8090615272521973e-01 -1.7073971033096313e-01</leafValues></_>
        <_>
          <internalNodes>
            0 -1 73 5.0167867448180914e-04</internalNodes>
          <leafValues>
            -3.3691167831420898e-01 3.0599915981292725e-01</leafValues></_>
        <_>
          <internalNodes>
            0 -1 133 2.8534157900139689e-04</internalNodes>
          <leafValues>
            -2.3998761177062988e-01 4.3235543370246887e-01</leafValues></_>
        <_>
          <internalNodes>
            0 -1 20 1.2458354467526078e-04</internalNodes>
          <leafValues>
            3.4460777044296265e-01 -3.5784462094306946e-01</leafValues></_>
        <_>
          <internalNodes>
            0 -1 66 6.6786617971956730e-03</internalNodes>
          <leafValues>
            1.0990685224533081e-01 -9.1243565082550049e-01</leafValues></_></weakClassifiers></_>
    <!-- stage 19 -->
    <_>
      <maxWeakCount>9</maxWeakCount>
      <stageThreshold>-8.4691429138183594e-01</stageThreshold>
      <weakClassifiers>
        <_>
          <internalNodes>
            0 -1 23 4.8515547066926956e-02</internalNodes>
          <leafValues>
            -4.6718147397041321e-01 5.1219511032104492e-01</leafValues></_>
        <_>
          <internalNodes>
            0 -1 30 -8.2552758976817131e-03</internalNodes>
          <leafValues>
            5.6103682518005371e-01 -2.2117720544338226e-01</leafValues></_>
        <_>
          <internalNodes>
            0 -1 30 2.9140391852706671e-03</internalNodes>
          <leafValues>
            -2.7361831068992615e-01 4.5794603228569031e-01</leafValues></_>
        <_>
          <internalNodes>
            0 -1 51 -1.6069260891526937e-03</internalNodes>
          <leafValues>
            3.5858842730522156e-01 -2.5635868310928345e-01</leafValues></_>
        <_>
          <internalNodes>
            0 -1 118 1.5557961538434029e-02</internalNodes>
          <leafValues>
            -1.3016748428344727e-01 6.8967634439468384e-01</leafValues></_>
        <_>
          <internalNodes>
            0 -1 17 5.1593769341707230e-02</internalNodes>
          <leafValues>
            1.1049605160951614e-01 -1.</leafValues></_>
        <_>
          <internalNodes>
            0 -1 64 2.9255235567688942e-03</internalNodes>
          <leafValues>
            -3.6286529898643494e-01 3.0001690983772278e-01</leafValues></_>
        <_>
          <internalNodes>
            0 -1 95 7.7881431207060814e-03</internalNodes>
          <leafValues>
            -1.9528058171272278e-01 6.0636955499649048e-01</leafValues></_>
        <_>
          <internalNodes>
            0 -1 92 -3.4519401378929615e-04</internalNodes>
          <leafValues>
            2.9305836558341980e-01 -3.9727276563644409e-01</leafValues></_></weakClassifiers></_></stages>
  <features>
    <_>
      <rects>
        <_>
          0 0 3 1 -1.</_>
        <_>
          1 0 1 1 2.</_></rects>
      <tilted>0</tilted></_>
    <_>
      <rects>
        <_>
          0 0 14 11 -1.</_>
        <_>
          7 0 7 11 2.</_></rects>
      <tilted>0</tilted></_>
    <_>
      <rects>
        <_>
          0 0 21 2 -1.</_>
        <_>
          0 1 21 1 2.</_></rects>
      <tilted>0</tilted></_>
    <_>
      <rects>
        <_>
          0 1 2 18 -1.</_>
        <_>
          1 1 1 18 2.</_></rects>
      <tilted>0</tilted></_>
    <_>
      <rects>
        <_>
          0 1 4 11 -1.</_>
        <_>
          2 1 2 11 2.</_></rects>
      <tilted>0</tilted></_>
    <_>
      <rects>
        <_>
          0 1 18 11 -1.</_>
        <_>
          6 1 6 11 2.</_></rects>
      <tilted>0</tilted></_>
    <_>
      <rects>
        <_>
          0 1 24 6 -1.</_>
        <_>
          8 1 8 6 2.</_></rects>
      <tilted>0</tilted></_>
    <_>
      <rects>
        <_>
          0 3 4 8 -1.</_>
        <_>
          0 7 4 4 2.</_></rects>
      <tilted>0</tilted></_>
    <_>
      <rects>
        <_>
          0 4 2 8 -1.</_>
        <_>
          1 4 1 8 2.</_></rects>
      <tilted>0</tilted></_>
    <_>
      <rects>
        <_>
          0 4 2 4 -1.</_>
        <_>
          0 6 2 2 2.</_></rects>
      <tilted>0</tilted></_>
    <_>
      <rects>
        <_>
          0 4 4 14 -1.</_>
        <_>
          2 4 2 14 2.</_></rects>
      <tilted>0</tilted></_>
    <_>
      <rects>
        <_>
          0 5 2 10 -1.</_>
        <_>
          0 5 1 5 2.</_>
        <_>
          1 10 1 5 2.</_></rects>
      <tilted>0</tilted></_>
    <_>
      <rects>
        <_>
          0 6 1 18 -1.</_>
        <_>
          0 12 1 6 2.</_></rects>
      <tilted>0</tilted></_>
    <_>
      <rects>
        <_>
          0 6 4 1 -1.</_>
        <_>
          2 6 2 1 2.</_></rects>
      <tilted>0</tilted></_>
    <_>
      <rects>
        <_>
          0 6 22 6 -1.</_>
        <_>
          0 9 22 3 2.</_></rects>
      <tilted>0</tilted></_>
    <_>
      <rects>
        <_>
          0 8 21 2 -1.</_>
        <_>
          7 8 7 2 2.</_></rects>
      <tilted>0</tilted></_>
    <_>
      <rects>
        <_>
          0 9 6 2 -1.</_>
        <_>
          0 10 6 1 2.</_></rects>
      <tilted>0</tilted></_>
    <_>
      <rects>
        <_>
          0 10 24 6 -1.</_>
        <_>
          0 10 12 3 2.</_>
        <_>
          12 13 12 3 2.</_></rects>
      <tilted>0</tilted></_>
    <_>
      <rects>
        <_>
          0 16 2 6 -1.</_>
        <_>
          0 16 1 3 2.</_>
        <_>
          1 19 1 3 2.</_></rects>
      <tilted>0</tilted></_>
    <_>
      <rects>
        <_>
          0 16 2 8 -1.</_>
        <_>
          0 16 1 4 2.</_>
        <_>
          1 20 1 4 2.</_></rects>
      <tilted>0</tilted></_>
    <_>
      <rects>
        <_>
          0 17 2 3 -1.</_>
        <_>
          1 17 1 3 2.</_></rects>
      <tilted>0</tilted></_>
    <_>
      <rects>
        <_>
          0 17 7 2 -1.</_>
        <_>
          0 18 7 1 2.</_></rects>
      <tilted>0</tilted></_>
    <_>
      <rects>
        <_>
          0 18 10 6 -1.</_>
        <_>
          0 18 5 3 2.</_>
        <_>
          5 21 5 3 2.</_></rects>
      <tilted>0</tilted></_>
    <_>
      <rects>
        <_>
          0 19 12 5 -1.</_>
        <_>
          6 19 6 5 2.</_></rects>
      <tilted>0</tilted></_>
    <_>
      <rects>
        <_>
          0 19 22 3 -1.</_>
        <_>
          0 20 22 1 2.</_></rects>
      <tilted>0</tilted></_>
    <_>
      <rects>
        <_>
          0 22 14 2 -1.</_>
        <_>
          0 22 7 1 2.</_>
        <_>
          7 23 7 1 2.</_></rects>
      <tilted>0</tilted></_>
    <_>
      <rects>
        <_>
          1 0 8 2 -1.</_>
        <_>
          1 1 8 1 2.</_></rects>
      <tilted>0</tilted></_>
    <_>
      <rects>
        <_>
          1 2 10 20 -1.</_>
        <_>
          1 2 5 10 2.</_>
        <_>
          6 12 5 10 2.</_></rects>
      <tilted>0</tilted></_>
    <_>
      <rects>
        <_>
          1 7 22 6 -1.</_>
        <_>
          1 10 22 3 2.</_></rects>
      <tilted>0</tilted></_>
    <_>
      <rects>
        <_>
          1 14 2 5 -1.</_>
        <_>
          2 14 1 5 2.</_></rects>
      <tilted>0</tilted></_>
    <_>
      <rects>
        <_>
          1 18 6 6 -1.</_>
        <_>
          1 18 3 3 2.</_>
        <_>
          4 21 3 3 2.</_></rects>
      <tilted>0</tilted></_>
    <_>
      <rects>
        <_>
          1 21 18 2 -1.</_>
        <_>
          10 21 9 2 2.</_></rects>
      <tilted>0</tilted></_>
    <_>
      <rects>
        <_>
          2 0 6 4 -1.</_>
        <_>
          2 0 3 2 2.</_>
        <_>
          5 2 3 2 2.</_></rects>
      <tilted>0</tilted></_>
    <_>
      <rects>
        <_>
          2 1 4 4 -1.</_>
        <_>
          4 1 2 4 2.</_></rects>
      <tilted>0</tilted></_>
    <_>
      <rects>
        <_>
          2 1 15 17 -1.</_>
        <_>
          7 1 5 17 2.</_></rects>
      <tilted>0</tilted></_>
    <_>
      <rects>
        <_>
          2 5 16 8 -1.</_>
        <_>
          10 5 8 8 2.</_></rects>
      <tilted>0</tilted></_>
    <_>
      <rects>
        <_>
          2 6 7 2 -1.</_>
        <_>
          2 7 7 1 2.</_></rects>
      <tilted>0</tilted></_>
    <_>
      <rects>
        <_>
          2 9 19 2 -1.</_>
        <_>
          2 10 19 1 2.</_></rects>
      <tilted>0</tilted></_>
    <_>
      <rects>
        <_>
          2 17 2 5 -1.</_>
        <_>
          3 17 1 5 2.</_></rects>
      <tilted>0</tilted></_>
    <_>
      <rects>
        <_>
          2 20 10 4 -1.</_>
        <_>
          2 20 5 2 2.</_>
        <_>
          7 22 5 2 2.</_></rects>
      <tilted>0</tilted></_>
    <_>
      <rects>
        <_>
          3 1 6 3 -1.</_>
        <_>
          6 1 3 3 2.</_></rects>
      <tilted>0</tilted></_>
    <_>
      <rects>
        <_>
          3 2 9 8 -1.</_>
        <_>
          3 6 9 4 2.</_></rects>
      <tilted>0</tilted></_>
    <_>
      <rects>
        <_>
          3 2 17 6 -1.</_>
        <_>
          3 5 17 3 2.</_></rects>
      <tilted>0</tilted></_>
    <_>
      <rects>
        <_>
          3 3 9 12 -1.</_>
        <_>
          3 7 9 4 2.</_></rects>
      <tilted>0</tilted></_>
    <_>
      <rects>
        <_>
          3 4 16 6 -1.</_>
        <_>
          3 7 16 3 2.</_></rects>
      <tilted>0</tilted></_>
    <_>
      <rects>
        <_>
          3 6 14 4 -1.</_>
        <_>
          3 8 14 2 2.</_></rects>
      <tilted>0</tilted></_>
    <_>
      <rects>
        <_>
          3 9 5 4 -1.</_>
        <_>
          3 11 5 2 2.</_></rects>
      <tilted>0</tilted></_>
    <_>
      <rects>
        <_>
          3 9 21 2 -1.</_>
        <_>
          3 10 21 1 2.</_></rects>
      <tilted>0</tilted></_>
    <_>
      <rects>
        <_>
          3 10 21 14 -1.</_>
        <_>
          3 17 21 7 2.</_></rects>
      <tilted>0</tilted></_>
    <_>
      <rects>
        <_>
          3 13 13 4 -1.</_>
        <_>
          3 15 13 2 2.</_></rects>
      <tilted>0</tilted></_>
    <_>
      <rects>
        <_>
          3 18 16 6 -1.</_>
        <_>
          3 20 16 2 2.</_></rects>
      <tilted>0</tilted></_>
    <_>
      <rects>
        <_>
          3 22 12 2 -1.</_>
        <_>
          3 22 6 1 2.</_>
        <_>
          9 23 6 1 2.</_></rects>
      <tilted>0</tilted></_>
    <_>
      <rects>
        <_>
          4 0 15 4 -1.</_>
        <_>
          4 2 15 2 2.</_></rects>
      <tilted>0</tilted></_>
    <_>
      <rects>
        <_>
          4 2 4 20 -1.</_>
        <_>
          6 2 2 20 2.</_></rects>
      <tilted>0</tilted></_>
    <_>
      <rects>
        <_>
          4 2 12 12 -1.</_>
        <_>
          4 2 6 6 2.</_>
        <_>
          10 8 6 6 2.</_></rects>
      <tilted>0</tilted></_>
    <_>
      <rects>
        <_>
          4 6 8 10 -1.</_>
        <_>
          4 11 8 5 2.</_></rects>
      <tilted>0</tilted></_>
    <_>
      <rects>
        <_>
          4 8 18 2 -1.</_>
        <_>
          4 8 9 1 2.</_>
        <_>
          13 9 9 1 2.</_></rects>
      <tilted>0</tilted></_>
    <_>
      <rects>
        <_>
          4 13 3 2 -1.</_>
        <_>
          4 14 3 1 2.</_></rects>
      <tilted>0</tilted></_>
    <_>
      <rects>
        <_>
          4 13 20 7 -1.</_>
        <_>
          14 13 10 7 2.</_></rects>
      <tilted>0</tilted></_>
    <_>
      <rects>
        <_>
          4 15 15 5 -1.</_>
        <_>
          9 15 5 5 2.</_></rects>
      <tilted>0</tilted></_>
    <_>
      <rects>
        <_>
          4 17 2 2 -1.</_>
        <_>
          4 17 1 1 2.</_>
        <_>
          5 18 1 1 2.</_></rects>
      <tilted>0</tilted></_>
    <_>
      <rects>
        <_>
          4 17 2 2 -1.</_>
        <_>
          4 18 2 1 2.</_></rects>
      <tilted>0</tilted></_>
    <_>
      <rects>
        <_>
          4 22 10 2 -1.</_>
        <_>
          9 22 5 2 2.</_></rects>
      <tilted>0</tilted></_>
    <_>
      <rects>
        <_>
          4 22 11 2 -1.</_>
        <_>
          4 23 11 1 2.</_></rects>
      <tilted>0</tilted></_>
    <_>
      <rects>
        <_>
          5 0 6 4 -1.</_>
        <_>
          5 2 6 2 2.</_></rects>
      <tilted>0</tilted></_>
    <_>
      <rects>
        <_>
          5 13 2 8 -1.</_>
        <_>
          5 13 1 4 2.</_>
        <_>
          6 17 1 4 2.</_></rects>
      <tilted>0</tilted></_>
    <_>
      <rects>
        <_>
          5 18 4 3 -1.</_>
        <_>
          7 18 2 3 2.</_></rects>
      <tilted>0</tilted></_>
    <_>
      <rects>
        <_>
          5 18 6 2 -1.</_>
        <_>
          8 18 3 2 2.</_></rects>
      <tilted>0</tilted></_>
    <_>
      <rects>
        <_>
          6 1 18 4 -1.</_>
        <_>
          12 1 6 4 2.</_></rects>
      <tilted>0</tilted></_>
    <_>
      <rects>
        <_>
          6 2 2 5 -1.</_>
        <_>
          7 2 1 5 2.</_></rects>
      <tilted>0</tilted></_>
    <_>
      <rects>
        <_>
          6 2 7 6 -1.</_>
        <_>
          6 5 7 3 2.</_></rects>
      <tilted>0</tilted></_>
    <_>
      <rects>
        <_>
          6 9 6 7 -1.</_>
        <_>
          9 9 3 7 2.</_></rects>
      <tilted>0</tilted></_>
    <_>
      <rects>
        <_>
          7 0 8 10 -1.</_>
        <_>
          7 5 8 5 2.</_></rects>
      <tilted>0</tilted></_>
    <_>
      <rects>
        <_>
          7 4 2 13 -1.</_>
        <_>
          8 4 1 13 2.</_></rects>
      <tilted>0</tilted></_>
    <_>
      <rects>
        <_>
          7 5 5 16 -1.</_>
        <_>
          7 13 5 8 2.</_></rects>
      <tilted>0</tilted></_>
    <_>
      <rects>
        <_>
          7 12 2 2 -1.</_>
        <_>
          7 12 1 1 2.</_>
        <_>
          8 13 1 1 2.</_></rects>
      <tilted>0</tilted></_>
    <_>
      <rects>
        <_>
          7 14 6 8 -1.</_>
        <_>
          7 14 3 4 2.</_>
        <_>
          10 18 3 4 2.</_></rects>
      <tilted>0</tilted></_>
    <_>
      <rects>
        <_>
          7 15 2 6 -1.</_>
        <_>
          7 15 1 3 2.</_>
        <_>
          8 18 1 3 2.</_></rects>
      <tilted>0</tilted></_>
    <_>
      <rects>
        <_>
          7 20 14 4 -1.</_>
        <_>
          7 22 14 2 2.</_></rects>
      <tilted>0</tilted></_>
    <_>
      <rects>
        <_>
          7 21 14 2 -1.</_>
        <_>
          7 22 14 1 2.</_></rects>
      <tilted>0</tilted></_>
    <_>
      <rects>
        <_>
          7 22 12 2 -1.</_>
        <_>
          7 23 12 1 2.</_></rects>
      <tilted>0</tilted></_>
    <_>
      <rects>
        <_>
          8 0 9 1 -1.</_>
        <_>
          11 0 3 1 2.</_></rects>
      <tilted>0</tilted></_>
    <_>
      <rects>
        <_>
          8 1 2 2 -1.</_>
        <_>
          8 1 1 1 2.</_>
        <_>
          9 2 1 1 2.</_></rects>
      <tilted>0</tilted></_>
    <_>
      <rects>
        <_>
          8 12 12 1 -1.</_>
        <_>
          14 12 6 1 2.</_></rects>
      <tilted>0</tilted></_>
    <_>
      <rects>
        <_>
          8 17 6 6 -1.</_>
        <_>
          8 20 6 3 2.</_></rects>
      <tilted>0</tilted></_>
    <_>
      <rects>
        <_>
          8 20 1 4 -1.</_>
        <_>
          8 22 1 2 2.</_></rects>
      <tilted>0</tilted></_>
    <_>
      <rects>
        <_>
          8 20 14 4 -1.</_>
        <_>
          8 22 14 2 2.</_></rects>
      <tilted>0</tilted></_>
    <_>
      <rects>
        <_>
          9 0 15 3 -1.</_>
        <_>
          14 0 5 3 2.</_></rects>
      <tilted>0</tilted></_>
    <_>
      <rects>
        <_>
          9 0 12 2 -1.</_>
        <_>
          15 0 6 2 2.</_></rects>
      <tilted>0</tilted></_>
    <_>
      <rects>
        <_>
          9 10 12 12 -1.</_>
        <_>
          9 16 12 6 2.</_></rects>
      <tilted>0</tilted></_>
    <_>
      <rects>
        <_>
          9 17 2 6 -1.</_>
        <_>
          9 17 1 3 2.</_>
        <_>
          10 20 1 3 2.</_></rects>
      <tilted>0</tilted></_>
    <_>
      <rects>
        <_>
          9 20 15 4 -1.</_>
        <_>
          9 22 15 2 2.</_></rects>
      <tilted>0</tilted></_>
    <_>
      <rects>
        <_>
          9 21 5 2 -1.</_>
        <_>
          9 22 5 1 2.</_></rects>
      <tilted>0</tilted></_>
    <_>
      <rects>
        <_>
          10 14 2 10 -1.</_>
        <_>
          10 14 1 5 2.</_>
        <_>
          11 19 1 5 2.</_></rects>
      <tilted>0</tilted></_>
    <_>
      <rects>
        <_>
          10 17 11 4 -1.</_>
        <_>
          10 19 11 2 2.</_></rects>
      <tilted>0</tilted></_>
    <_>
      <rects>
        <_>
          11 0 6 6 -1.</_>
        <_>
          11 0 3 3 2.</_>
        <_>
          14 3 3 3 2.</_></rects>
      <tilted>0</tilted></_>
    <_>
      <rects>
        <_>
          11 1 5 9 -1.</_>
        <_>
          11 4 5 3 2.</_></rects>
      <tilted>0</tilted></_>
    <_>
      <rects>
        <_>
          11 10 4 2 -1.</_>
        <_>
          11 10 2 1 2.</_>
        <_>
          13 11 2 1 2.</_></rects>
      <tilted>0</tilted></_>
    <_>
      <rects>
        <_>
          11 20 10 4 -1.</_>
        <_>
          11 22 10 2 2.</_></rects>
      <tilted>0</tilted></_>
    <_>
      <rects>
        <_>
          11 23 3 1 -1.</_>
        <_>
          12 23 1 1 2.</_></rects>
      <tilted>0</tilted></_>
    <_>
      <rects>
        <_>
          12 0 12 12 -1.</_>
        <_>
          12 0 6 6 2.</_>
        <_>
          18 6 6 6 2.</_></rects>
      <tilted>0</tilted></_>
    <_>
      <rects>
        <_>
          12 8 12 2 -1.</_>
        <_>
          12 9 12 1 2.</_></rects>
      <tilted>0</tilted></_>
    <_>
      <rects>
        <_>
          12 14 2 8 -1.</_>
        <_>
          12 14 1 4 2.</_>
        <_>
          13 18 1 4 2.</_></rects>
      <tilted>0</tilted></_>
    <_>
      <rects>
        <_>
          12 17 6 2 -1.</_>
        <_>
          12 17 3 1 2.</_>
        <_>
          15 18 3 1 2.</_></rects>
      <tilted>0</tilted></_>
    <_>
      <rects>
        <_>
          12 18 12 3 -1.</_>
        <_>
          18 18 6 3 2.</_></rects>
      <tilted>0</tilted></_>
    <_>
      <rects>
        <_>
          13 3 5 4 -1.</_>
        <_>
          13 5 5 2 2.</_></rects>
      <tilted>0</tilted></_>
    <_>
      <rects>
        <_>
          13 5 2 2 -1.</_>
        <_>
          13 5 1 1 2.</_>
        <_>
          14 6 1 1 2.</_></rects>
      <tilted>0</tilted></_>
    <_>
      <rects>
        <_>
          13 5 6 8 -1.</_>
        <_>
          13 5 3 4 2.</_>
        <_>
          16 9 3 4 2.</_></rects>
      <tilted>0</tilted></_>
    <_>
      <rects>
        <_>
          13 6 2 4 -1.</_>
        <_>
          14 6 1 4 2.</_></rects>
      <tilted>0</tilted></_>
    <_>
      <rects>
        <_>
          13 7 11 6 -1.</_>
        <_>
          13 10 11 3 2.</_></rects>
      <tilted>0</tilted></_>
    <_>
      <rects>
        <_>
          13 11 9 12 -1.</_>
        <_>
          13 17 9 6 2.</_></rects>
      <tilted>0</tilted></_>
    <_>
      <rects>
        <_>
          13 14 4 2 -1.</_>
        <_>
          13 14 2 1 2.</_>
        <_>
          15 15 2 1 2.</_></rects>
      <tilted>0</tilted></_>
    <_>
      <rects>
        <_>
          14 0 1 8 -1.</_>
        <_>
          14 4 1 4 2.</_></rects>
      <tilted>0</tilted></_>
    <_>
      <rects>
        <_>
          14 1 1 2 -1.</_>
        <_>
          14 2 1 1 2.</_></rects>
      <tilted>0</tilted></_>
    <_>
      <rects>
        <_>
          14 4 5 10 -1.</_>
        <_>
          14 9 5 5 2.</_></rects>
      <tilted>0</tilted></_>
    <_>
      <rects>
        <_>
          14 13 10 8 -1.</_>
        <_>
          14 17 10 4 2.</_></rects>
      <tilted>0</tilted></_>
    <_>
      <rects>
        <_>
          14 20 5 4 -1.</_>
        <_>
          14 22 5 2 2.</_></rects>
      <tilted>0</tilted></_>
    <_>
      <rects>
        <_>
          16 2 2 12 -1.</_>
        <_>
          17 2 1 12 2.</_></rects>
      <tilted>0</tilted></_>
    <_>
      <rects>
        <_>
          16 18 8 5 -1.</_>
        <_>
          20 18 4 5 2.</_></rects>
      <tilted>0</tilted></_>
    <_>
      <rects>
        <_>
          17 0 6 6 -1.</_>
        <_>
          17 2 6 2 2.</_></rects>
      <tilted>0</tilted></_>
    <_>
      <rects>
        <_>
          18 0 6 13 -1.</_>
        <_>
          21 0 3 13 2.</_></rects>
      <tilted>0</tilted></_>
    <_>
      <rects>
        <_>
          18 2 4 1 -1.</_>
        <_>
          20 2 2 1 2.</_></rects>
      <tilted>0</tilted></_>
    <_>
      <rects>
        <_>
          19 0 3 2 -1.</_>
        <_>
          19 1 3 1 2.</_></rects>
      <tilted>0</tilted></_>
    <_>
      <rects>
        <_>
          19 1 3 12 -1.</_>
        <_>
          19 5 3 4 2.</_></rects>
      <tilted>0</tilted></_>
    <_>
      <rects>
        <_>
          19 2 2 5 -1.</_>
        <_>
          20 2 1 5 2.</_></rects>
      <tilted>0</tilted></_>
    <_>
      <rects>
        <_>
          19 2 2 12 -1.</_>
        <_>
          19 2 1 6 2.</_>
        <_>
          20 8 1 6 2.</_></rects>
      <tilted>0</tilted></_>
    <_>
      <rects>
        <_>
          19 5 4 4 -1.</_>
        <_>
          19 5 2 2 2.</_>
        <_>
          21 7 2 2 2.</_></rects>
      <tilted>0</tilted></_>
    <_>
      <rects>
        <_>
          19 7 2 10 -1.</_>
        <_>
          19 7 1 5 2.</_>
        <_>
          20 12 1 5 2.</_></rects>
      <tilted>0</tilted></_>
    <_>
      <rects>
        <_>
          19 14 2 10 -1.</_>
        <_>
          19 19 2 5 2.</_></rects>
      <tilted>0</tilted></_>
    <_>
      <rects>
        <_>
          20 6 4 18 -1.</_>
        <_>
          20 12 4 6 2.</_></rects>
      <tilted>0</tilted></_>
    <_>
      <rects>
        <_>
          20 9 4 5 -1.</_>
        <_>
          22 9 2 5 2.</_></rects>
      <tilted>0</tilted></_>
    <_>
      <rects>
        <_>
          20 9 4 14 -1.</_>
        <_>
          20 9 2 7 2.</_>
        <_>
          22 16 2 7 2.</_></rects>
      <tilted>0</tilted></_>
    <_>
      <rects>
        <_>
          20 10 3 2 -1.</_>
        <_>
          20 11 3 1 2.</_></rects>
      <tilted>0</tilted></_>
    <_>
      <rects>
        <_>
          20 20 2 4 -1.</_>
        <_>
          20 20 1 2 2.</_>
        <_>
          21 22 1 2 2.</_></rects>
      <tilted>0</tilted></_>
    <_>
      <rects>
        <_>
          21 1 3 4 -1.</_>
        <_>
          21 3 3 2 2.</_></rects>
      <tilted>0</tilted></_>
    <_>
      <rects>
        <_>
          21 3 2 7 -1.</_>
        <_>
          22 3 1 7 2.</_></rects>
      <tilted>0</tilted></_>
    <_>
      <rects>
        <_>
          21 10 2 2 -1.</_>
        <_>
          21 10 1 1 2.</_>
        <_>
          22 11 1 1 2.</_></rects>
      <tilted>0</tilted></_>
    <_>
      <rects>
        <_>
          21 20 2 3 -1.</_>
        <_>
          21 21 2 1 2.</_></rects>
      <tilted>0</tilted></_>
    <_>
      <rects>
        <_>
          22 2 2 20 -1.</_>
        <_>
          23 2 1 20 2.</_></rects>
      <tilted>0</tilted></_>
    <_>
      <rects>
        <_>
          22 7 2 6 -1.</_>
        <_>
          23 7 1 6 2.</_></rects>
      <tilted>0</tilted></_>
    <_>
      <rects>
        <_>
          22 9 2 5 -1.</_>
        <_>
          23 9 1 5 2.</_></rects>
      <tilted>0</tilted></_></features></cascade>
</opencv_storage>
