<?xml version="1.0"?>
<opencv_storage>
<stage6>
  <maxWeakCount>7</maxWeakCount>
  <stageThreshold>-9.0905916690826416e-01</stageThreshold>
  <weakClassifiers>
    <_>
      <internalNodes>
        0 -1 5860 -1.1532196775078773e-02</internalNodes>
      <leafValues>
        -4.8679244518280029e-01 8.2857143878936768e-01</leafValues></_>
    <_>
      <internalNodes>
        0 -1 152088 -1.4671891927719116e-02</internalNodes>
      <leafValues>
        4.4307118654251099e-01 -4.3138551712036133e-01</leafValues></_>
    <_>
      <internalNodes>
        0 -1 131195 1.4239748939871788e-02</internalNodes>
      <leafValues>
        -5.1780372858047485e-01 3.9067372679710388e-01</leafValues></_>
    <_>
      <internalNodes>
        0 -1 13953 4.8724422231316566e-03</internalNodes>
      <leafValues>
        -2.6564136147499084e-01 7.1012413501739502e-01</leafValues></_>
    <_>
      <internalNodes>
        0 -1 121335 -6.3156653195619583e-03</internalNodes>
      <leafValues>
        -4.7366833686828613e-01 4.1606247425079346e-01</leafValues></_>
    <_>
      <internalNodes>
        0 -1 133772 6.4757429063320160e-03</internalNodes>
      <leafValues>
        -2.0598754286766052e-01 7.8046101331710815e-01</leafValues></_>
    <_>
      <internalNodes>
        0 -1 72759 -1.7363756895065308e-02</internalNodes>
      <leafValues>
        5.6608009338378906e-01 -2.9196771979331970e-01</leafValues></_></weakClassifiers></stage6>
</opencv_storage>
