<?xml version="1.0"?>
<opencv_storage>
<stage15>
  <maxWeakCount>9</maxWeakCount>
  <stageThreshold>-1.2644121646881104e+00</stageThreshold>
  <weakClassifiers>
    <_>
      <internalNodes>
        0 -1 1024 1.1770416051149368e-02</internalNodes>
      <leafValues>
        -5.2988046407699585e-01 6.7346936464309692e-01</leafValues></_>
    <_>
      <internalNodes>
        0 -1 13335 -3.0880323611199856e-03</internalNodes>
      <leafValues>
        5.9969478845596313e-01 -3.8022863864898682e-01</leafValues></_>
    <_>
      <internalNodes>
        0 -1 51358 4.9151340499520302e-03</internalNodes>
      <leafValues>
        4.7086924314498901e-01 -4.2240813374519348e-01</leafValues></_>
    <_>
      <internalNodes>
        0 -1 98503 -1.0429766029119492e-02</internalNodes>
      <leafValues>
        3.5848295688629150e-01 -4.2418092489242554e-01</leafValues></_>
    <_>
      <internalNodes>
        0 -1 45167 1.6039770096540451e-02</internalNodes>
      <leafValues>
        -1.9917258620262146e-01 8.1200045347213745e-01</leafValues></_>
    <_>
      <internalNodes>
        0 -1 5008 -9.6377613954246044e-04</internalNodes>
      <leafValues>
        5.4856395721435547e-01 -2.4198669195175171e-01</leafValues></_>
    <_>
      <internalNodes>
        0 -1 31468 2.2034016437828541e-03</internalNodes>
      <leafValues>
        -2.1629206836223602e-01 6.2704271078109741e-01</leafValues></_>
    <_>
      <internalNodes>
        0 -1 115294 -5.2964672446250916e-02</internalNodes>
      <leafValues>
        -2.0326507091522217e-01 7.8703868389129639e-01</leafValues></_>
    <_>
      <internalNodes>
        0 -1 134209 4.9000669969245791e-04</internalNodes>
      <leafValues>
        -2.4411891400814056e-01 5.7033860683441162e-01</leafValues></_></weakClassifiers></stage15>
</opencv_storage>
