<?xml version="1.0"?>
<opencv_storage>
<stage1>
  <maxWeakCount>5</maxWeakCount>
  <stageThreshold>-9.3147701025009155e-01</stageThreshold>
  <weakClassifiers>
    <_>
      <internalNodes>
        0 -1 158657 -5.1616411656141281e-02</internalNodes>
      <leafValues>
        -4.7058823704719543e-01 1.</leafValues></_>
    <_>
      <internalNodes>
        0 -1 528 4.2623139917850494e-02</internalNodes>
      <leafValues>
        -5.4032069444656372e-01 4.4605362415313721e-01</leafValues></_>
    <_>
      <internalNodes>
        0 -1 90556 7.9385319259017706e-04</internalNodes>
      <leafValues>
        3.3016377687454224e-01 -8.9730477333068848e-01</leafValues></_>
    <_>
      <internalNodes>
        0 -1 106108 -2.2076657041907310e-03</internalNodes>
      <leafValues>
        -8.7145954370498657e-01 2.4766597151756287e-01</leafValues></_>
    <_>
      <internalNodes>
        0 -1 135687 3.3815443515777588e-02</internalNodes>
      <leafValues>
        -3.6564666032791138e-01 6.5824794769287109e-01</leafValues></_></weakClassifiers></stage1>
</opencv_storage>
