<?xml version="1.0"?>
<opencv_storage>
<stage18>
  <maxWeakCount>10</maxWeakCount>
  <stageThreshold>-7.9661446809768677e-01</stageThreshold>
  <weakClassifiers>
    <_>
      <internalNodes>
        0 -1 11897 -3.8907688576728106e-03</internalNodes>
      <leafValues>
        4.0909090638160706e-01 -4.6093750000000000e-01</leafValues></_>
    <_>
      <internalNodes>
        0 -1 70099 9.8341703414916992e-03</internalNodes>
      <leafValues>
        8.3423584699630737e-02 -9.5380753278732300e-01</leafValues></_>
    <_>
      <internalNodes>
        0 -1 60386 6.1127971857786179e-03</internalNodes>
      <leafValues>
        -2.1323028206825256e-01 5.3455352783203125e-01</leafValues></_>
    <_>
      <internalNodes>
        0 -1 6619 2.1789401769638062e-02</internalNodes>
      <leafValues>
        -4.0719616413116455e-01 2.7218931913375854e-01</leafValues></_>
    <_>
      <internalNodes>
        0 -1 132788 -1.6846628859639168e-03</internalNodes>
      <leafValues>
        8.0065572261810303e-01 -1.2539364397525787e-01</leafValues></_>
    <_>
      <internalNodes>
        0 -1 43580 -3.0344478785991669e-02</internalNodes>
      <leafValues>
        5.8090615272521973e-01 -1.7073971033096313e-01</leafValues></_>
    <_>
      <internalNodes>
        0 -1 83573 5.0167867448180914e-04</internalNodes>
      <leafValues>
        -3.3691167831420898e-01 3.0599915981292725e-01</leafValues></_>
    <_>
      <internalNodes>
        0 -1 159678 2.8534157900139689e-04</internalNodes>
      <leafValues>
        -2.3998761177062988e-01 4.3235543370246887e-01</leafValues></_>
    <_>
      <internalNodes>
        0 -1 12242 1.2458354467526078e-04</internalNodes>
      <leafValues>
        3.4460777044296265e-01 -3.5784462094306946e-01</leafValues></_>
    <_>
      <internalNodes>
        0 -1 70084 6.6786617971956730e-03</internalNodes>
      <leafValues>
        1.0990685224533081e-01 -9.1243565082550049e-01</leafValues></_></weakClassifiers></stage18>
</opencv_storage>
